svm_type c_svc
kernel_type rbf
gamma 0.0375
nr_class 2
total_sv 742
rho 2.34589
label 0 1
probA -5.04726
probB 0.259679
nr_sv 404 338
SV
1.280047647172709 3:0.14285714 4:0.21428571 5:0.42857143 6:0.71428571 7:1 8:0.92857143 9:0.57142857 10:0.57142857 11:0.57142857 12:0.5 13:0.42857143 14:0.42857143 15:0.5 16:0.57142857 17:0.71428571 18:0.64285714 19:0.71428571 20:0.64285714 21:0.71428571 22:0.35714286 23:0.42857143 24:0.35714286 25:0.42857143 26:0.42857143 27:0.35714286 28:0.28571429 29:0.42857143 30:0.57142857 31:0.5 32:0.42857143 33:0.5 34:0.42857143 35:0.42857143 36:0.42857143 37:0.5 38:0.35714286 39:0.28571429 40:0.35714286 41:0.42857143 42:0.28571429 43:0.42857143 44:0.57142857 45:0.64285714 46:0.71428571 47:0.64285714 48:0.5 49:0.57142857 50:0.57142857 51:0.71428571 52:0.85714286 53:0.71428571 54:0.71428571 55:0.64285714 56:0.71428571 57:0.78571429 58:0.64285714 59:0.64285714 60:0.71428571 61:0.85714286 62:0.85714286 63:0.64285714 64:0.5 65:0.42857143 66:0.42857143 67:0.35714286 68:0.21428571 69:0.21428571 70:0.21428571 71:0.21428571 72:0.28571429 73:0.28571429 74:0.21428571 75:0.21428571 76:0.21428571 77:0.28571429 78:0.57142857 79:0.64285714 80:0.71428571 81:0.64285714 82:0.64285714 83:0.57142857 84:0.42857143 85:0.28571429 86:0.28571429 87:0.21428571 88:0.28571429 89:0.21428571 90:0.28571429 91:0.28571429 92:0.5 93:0.5 94:0.57142857 95:0.5 96:0.57142857 97:0.57142857 98:0.64285714 99:0.64285714 100:0.5 101:0.57142857 102:0.57142857 103:0.5 104:0.5 105:0.57142857 106:0.64285714 107:0.57142857 108:0.85714286 109:0.78571429 110:0.64285714 111:0.5 112:0.42857143 113:0.42857143 114:0.5 115:0.57142857 116:0.57142857 117:0.35714286 118:0.35714286 119:0.35714286 120:0.35714286 121:0.35714286 122:0.35714286 123:0.35714286 124:0.35714286 125:0.35714286 126:0.28571429 127:0.28571429 128:0.28571429 129:0.28571429 130:0.28571429 131:0.28571429 132:0.35714286 133:0.21428571 134:0.21428571 135:0.21428571 136:0.21428571 137:0.60784314 138:0.68627451 139:0.68627451 140:0.60784314 141:0.50980392 142:0.29411765 143:0.35294118 144:0.62745098 145:0.76470588 146:0.96078431 147:1 148:0.78431373 149:0.62745098 150:0.66666667 151:0.58823529 152:0.58823529 153:0.50980392 154:0.41176471 155:0.33333333 156:0.29411765 157:0.45098039 158:0.54901961 159:0.58823529 160:0.52941176 161:0.35294118 162:0.29411765 163:0.21568627 164:0.21568627 165:0.25490196 166:0.29411765 167:0.43137255 168:0.50980392 169:0.41176471 170:0.39215686 171:0.21568627 172:0.019607843 
1.175030036569071 1:0.71428571 2:0.76190476 3:0.66666667 4:0.71428571 5:0.66666667 6:0.66666667 7:0.66666667 8:0.66666667 9:0.76190476 10:0.76190476 11:0.80952381 12:0.80952381 13:0.71428571 14:0.66666667 15:0.76190476 16:0.71428571 17:0.66666667 18:0.66666667 19:0.76190476 20:0.76190476 21:0.71428571 22:0.76190476 23:0.71428571 24:0.66666667 25:0.66666667 26:0.66666667 27:0.66666667 28:0.71428571 29:0.76190476 30:0.71428571 31:0.66666667 32:0.61904762 33:0.66666667 34:0.61904762 35:0.71428571 36:0.71428571 37:0.76190476 38:0.76190476 39:0.76190476 40:0.76190476 41:0.76190476 42:0.80952381 43:0.76190476 44:0.71428571 45:0.57142857 46:0.38095238 47:0.28571429 48:0.33333333 49:0.095238095 50:0.23809524 51:0.28571429 52:0.38095238 53:0.28571429 54:0.14285714 56:0.095238095 58:0.14285714 59:0.19047619 60:0.33333333 61:0.42857143 62:0.42857143 63:0.47619048 64:0.57142857 65:0.61904762 66:0.66666667 67:0.71428571 68:0.80952381 69:0.76190476 70:0.71428571 71:0.76190476 72:0.76190476 73:0.71428571 74:0.61904762 75:0.57142857 76:0.66666667 77:0.66666667 78:0.76190476 79:0.71428571 80:0.76190476 81:0.52380952 82:0.57142857 83:0.71428571 84:0.66666667 85:0.66666667 86:0.47619048 87:0.42857143 88:0.47619048 89:0.52380952 90:0.52380952 91:0.52380952 92:0.52380952 93:0.47619048 94:0.33333333 95:0.33333333 96:0.38095238 97:0.38095238 98:0.23809524 99:0.14285714 100:0.095238095 102:0.095238095 103:0.19047619 104:0.28571429 105:0.38095238 106:0.28571429 107:0.28571429 108:0.38095238 109:0.47619048 110:0.42857143 111:0.47619048 112:0.42857143 113:0.42857143 114:0.47619048 115:0.47619048 116:0.52380952 117:0.57142857 118:0.61904762 119:0.66666667 120:0.71428571 121:0.71428571 122:0.71428571 123:0.76190476 124:0.71428571 125:0.80952381 126:0.61904762 127:0.66666667 128:0.71428571 129:0.80952381 130:0.95238095 131:1 132:0.71428571 133:0.61904762 134:0.61904762 135:0.61904762 136:0.57142857 137:0.65753425 138:0.56164384 139:0.46575342 140:0.36986301 141:0.28767123 142:0.17808219 143:0.20547945 144:0.32876712 145:0.4109589 146:0.42465753 147:0.57534247 148:0.54794521 149:0.39726027 150:0.39726027 151:0.50684932 152:0.7260274 153:0.76712329 154:0.68493151 155:0.69863014 156:0.73972603 157:0.71232877 158:0.87671233 159:1 160:0.90410959 161:0.73972603 162:0.80821918 163:0.84931507 164:0.82191781 165:0.69863014 166:0.68493151 167:0.80821918 168:0.73972603 169:0.80821918 170:0.80821918 171:0.69863014 172:0.34246575 
0.02246163938895877 1:0.52380952 2:0.52380952 3:0.57142857 4:0.57142857 5:0.57142857 6:0.57142857 7:0.57142857 8:0.61904762 9:0.61904762 10:0.57142857 11:0.57142857 12:0.57142857 13:0.57142857 14:0.57142857 15:0.57142857 16:0.57142857 17:0.57142857 18:0.61904762 19:0.57142857 20:0.57142857 21:0.57142857 22:0.57142857 23:0.57142857 24:0.57142857 25:0.61904762 26:0.61904762 27:0.57142857 28:0.61904762 29:0.61904762 30:0.61904762 31:0.61904762 32:0.61904762 33:0.61904762 34:0.61904762 35:0.61904762 36:0.61904762 37:0.61904762 38:0.61904762 39:0.61904762 40:0.61904762 41:0.61904762 42:0.61904762 43:0.66666667 44:0.66666667 45:0.66666667 46:0.61904762 47:0.61904762 48:0.61904762 49:0.66666667 50:0.66666667 51:0.61904762 52:0.61904762 53:0.61904762 54:0.61904762 55:0.61904762 56:0.57142857 57:0.61904762 58:0.61904762 59:0.52380952 60:0.57142857 61:0.57142857 62:0.57142857 63:0.52380952 64:0.47619048 65:0.42857143 66:0.42857143 67:0.38095238 68:0.19047619 69:0.19047619 70:0.19047619 71:0.19047619 72:0.047619048 73:0.047619048 75:0.38095238 76:0.57142857 77:0.71428571 78:0.71428571 79:0.57142857 80:0.52380952 81:0.61904762 82:0.76190476 83:0.80952381 84:0.76190476 85:0.71428571 86:0.71428571 87:0.66666667 88:0.47619048 89:0.52380952 90:0.52380952 91:0.52380952 92:0.57142857 93:0.52380952 94:0.57142857 95:0.76190476 96:0.9047619 97:1 98:1 99:1 100:0.9047619 101:0.71428571 102:0.71428571 103:0.76190476 104:0.85714286 105:0.95238095 106:0.95238095 107:0.9047619 108:0.95238095 109:0.85714286 110:0.76190476 111:0.66666667 112:0.71428571 113:0.71428571 114:0.71428571 115:0.76190476 116:0.9047619 117:0.85714286 118:0.80952381 119:0.76190476 120:0.85714286 121:0.85714286 122:0.85714286 123:0.71428571 124:0.66666667 125:0.57142857 126:0.85714286 127:0.76190476 128:0.66666667 129:0.47619048 130:0.23809524 132:0.047619048 133:0.047619048 134:0.095238095 135:0.19047619 136:0.19047619 137:0.15306122 138:0.23469388 139:0.18367347 140:0.21428571 141:0.26530612 142:0.2244898 143:0.24489796 144:0.21428571 145:0.85714286 146:0.85714286 147:0.90816327 148:0.33673469 149:0.30612245 150:0.31632653 151:0.33673469 152:0.30612245 153:0.28571429 154:0.2755102 155:0.25510204 156:0.95918367 157:1 158:0.98979592 159:0.95918367 160:0.34693878 161:0.31632653 162:0.30612245 163:0.29591837 164:0.29591837 165:0.29591837 166:0.56122449 167:0.90816327 168:0.8877551 169:0.8877551 170:0.87755102 171:0.74489796 172:0.06122449 
0.5714247705290143 2:0.26923077 3:0.53846154 4:0.53846154 5:0.46153846 6:0.23076923 11:0.076923077 12:0.11538462 13:0.15384615 14:0.30769231 15:0.34615385 16:0.57692308 17:0.96153846 18:0.92307692 19:0.73076923 20:0.11538462 21:0.19230769 22:0.26923077 23:0.26923077 24:0.38461538 25:0.23076923 26:0.19230769 27:0.19230769 28:0.11538462 29:0.30769231 30:0.42307692 31:0.34615385 32:0.19230769 33:0.38461538 34:0.42307692 35:0.30769231 36:0.26923077 37:0.42307692 38:0.76923077 39:0.73076923 40:0.46153846 41:0.15384615 42:0.30769231 43:0.5 44:0.30769231 45:0.42307692 46:0.23076923 47:0.15384615 49:0.15384615 50:0.26923077 51:0.30769231 52:0.26923077 53:0.26923077 54:0.076923077 55:0.038461538 56:0.038461538 57:0.15384615 58:0.26923077 59:0.5 60:0.57692308 61:0.57692308 62:0.57692308 63:0.65384615 64:0.76923077 65:0.80769231 66:0.84615385 67:0.84615385 68:0.76923077 69:0.84615385 70:0.92307692 71:1 72:1 73:0.80769231 74:0.65384615 75:0.57692308 76:0.30769231 77:0.23076923 78:0.26923077 79:0.42307692 80:0.53846154 81:0.5 82:0.34615385 83:0.15384615 84:0.15384615 85:0.11538462 86:0.076923077 88:0.076923077 89:0.11538462 90:0.19230769 91:0.42307692 92:0.61538462 93:0.53846154 94:0.38461538 95:0.42307692 96:0.38461538 97:0.34615385 98:0.26923077 99:0.30769231 100:0.42307692 101:0.38461538 102:0.26923077 103:0.15384615 106:0.076923077 107:0.076923077 108:0.038461538 110:0.076923077 111:0.19230769 112:0.15384615 113:0.15384615 114:0.11538462 115:0.19230769 116:0.19230769 117:0.19230769 118:0.19230769 119:0.076923077 121:0.038461538 125:0.30769231 126:0.5 127:0.61538462 128:0.42307692 129:0.15384615 130:0.23076923 131:0.26923077 132:0.15384615 133:0.038461538 134:0.19230769 135:0.15384615 137:0.90243902 138:0.97560976 139:0.87804878 140:0.56097561 141:0.41463415 142:0.31707317 143:0.51219512 144:0.68292683 145:0.6097561 146:0.90243902 147:1 148:1 149:0.87804878 150:0.87804878 151:0.70731707 152:0.85365854 153:0.87804878 154:0.75609756 155:0.75609756 156:0.75609756 157:0.75609756 158:0.80487805 159:0.82926829 160:0.75609756 161:0.80487805 162:0.87804878 163:0.90243902 164:0.92682927 165:0.87804878 166:0.7804878 167:0.75609756 168:0.85365854 169:0.7804878 170:0.56097561 171:0.3902439 172:0.46341463 
2.505362790147761 1:0.041666667 2:0.125 3:0.083333333 4:0.083333333 5:0.20833333 6:0.16666667 7:0.125 8:0.125 9:0.20833333 10:0.375 11:0.41666667 12:0.45833333 13:0.45833333 14:0.45833333 15:0.66666667 16:0.66666667 17:0.625 18:0.66666667 19:0.58333333 20:0.70833333 21:0.70833333 22:0.625 23:0.25 24:0.25 25:0.41666667 26:0.5 27:0.625 28:0.75 29:0.95833333 30:0.91666667 31:0.875 32:0.75 33:0.625 34:0.54166667 35:0.33333333 36:0.20833333 37:0.16666667 38:0.29166667 39:0.5 40:0.58333333 41:0.625 42:0.66666667 43:0.625 44:0.58333333 45:0.66666667 46:0.75 47:0.91666667 48:1 49:1 50:0.875 51:0.79166667 52:0.625 53:0.54166667 54:0.29166667 55:0.41666667 56:0.54166667 57:0.70833333 58:0.75 59:0.58333333 60:0.66666667 61:0.66666667 62:0.625 63:0.45833333 64:0.33333333 65:0.29166667 66:0.16666667 67:0.16666667 68:0.20833333 69:0.29166667 70:0.41666667 71:0.5 72:0.45833333 73:0.33333333 74:0.41666667 75:0.45833333 76:0.29166667 77:0.125 78:0.125 79:0.16666667 80:0.16666667 81:0.083333333 82:0.041666667 83:0.041666667 84:0.083333333 85:0.125 86:0.16666667 87:0.16666667 88:0.25 89:0.29166667 90:0.20833333 91:0.083333333 92:0.125 93:0.083333333 94:0.20833333 95:0.5 96:0.70833333 97:0.58333333 98:0.29166667 99:0.041666667 104:0.083333333 105:0.16666667 106:0.25 107:0.33333333 108:0.33333333 109:0.41666667 110:0.16666667 111:0.083333333 112:0.083333333 113:0.54166667 114:0.91666667 115:0.91666667 116:0.75 117:0.45833333 118:0.29166667 119:0.20833333 120:0.20833333 121:0.083333333 122:0.125 123:0.29166667 124:0.20833333 125:0.16666667 126:0.125 127:0.125 128:0.083333333 131:0.125 132:0.20833333 133:0.33333333 134:0.375 135:0.125 137:0.20253165 138:0.44303797 139:0.75949367 140:0.79746835 141:0.70886076 142:0.35443038 143:0.13924051 144:0.27848101 145:0.2278481 146:0.16455696 147:0.51898734 148:0.74683544 149:0.59493671 150:0.53164557 151:0.3164557 152:0.12658228 153:0.063291139 154:0.063291139 155:0.16455696 156:0.29113924 157:0.64556962 158:0.81012658 159:0.58227848 160:0.32911392 161:0.3164557 162:0.15189873 163:0.050632911 164:0.16455696 165:0.35443038 166:0.59493671 167:0.84810127 168:1 169:0.7721519 170:0.59493671 171:0.4556962 172:0.35443038 
2.632283423720378 1:0.24 2:0.36 3:0.52 4:0.72 5:0.76 6:0.56 7:0.56 8:0.48 9:0.4 10:0.4 11:0.4 12:0.48 13:0.48 14:0.44 15:0.48 16:0.64 17:0.56 18:0.6 19:0.6 20:0.52 21:0.56 22:0.48 23:0.36 24:0.4 25:0.36 26:0.4 27:0.4 28:0.4 29:0.36 30:0.28 31:0.28 32:0.24 33:0.24 34:0.24 35:0.24 36:0.24 37:0.24 38:0.28 39:0.32 40:0.44 41:0.6 42:0.8 43:0.96 44:1 45:0.96 46:0.96 47:0.88 48:0.8 49:0.68 50:0.48 51:0.36 52:0.2 53:0.12 54:0.16 55:0.24 56:0.28 57:0.32 58:0.36 59:0.4 60:0.48 61:0.52 62:0.52 63:0.52 64:0.52 65:0.56 66:0.6 67:0.64 68:0.68 69:0.72 70:0.8 71:0.76 72:0.76 73:0.76 74:0.68 75:0.6 76:0.6 77:0.56 78:0.6 79:0.72 80:0.84 81:0.88 82:0.88 83:0.88 84:0.88 85:0.88 86:0.8 87:0.72 88:0.64 89:0.56 90:0.48 91:0.36 92:0.28 93:0.2 94:0.08 96:0.16 97:0.36 98:0.48 99:0.56 100:0.64 101:0.72 102:0.8 103:0.84 104:0.84 105:0.92 106:0.92 107:0.92 108:0.84 109:0.68 110:0.6 111:0.56 112:0.56 113:0.52 114:0.52 115:0.52 116:0.52 117:0.48 118:0.48 119:0.48 120:0.56 121:0.56 122:0.56 123:0.6 124:0.64 125:0.64 126:0.64 127:0.56 128:0.56 129:0.52 130:0.52 131:0.44 132:0.44 133:0.36 134:0.32 135:0.24 136:0.2 137:0.27 138:0.43 139:0.54 140:0.58 141:0.61 142:0.64 143:0.64 144:0.62 145:0.6 146:0.57 147:0.46 148:0.43 149:0.49 150:0.5 151:0.52 152:0.55 153:0.55 154:0.8 155:0.81 156:0.88 157:1 158:1 159:0.96 160:0.84 161:0.77 162:0.7 163:0.46 164:0.3 165:0.2 166:0.06 167:0.05 168:0.04 169:0.04 170:0.06 171:0.09 172:0.13 
1.297957352700014 1:0.46153846 2:0.46153846 3:0.46153846 4:0.46153846 5:0.46153846 6:0.46153846 7:0.30769231 8:0.23076923 9:0.23076923 10:0.23076923 11:0.076923077 12:0.23076923 13:0.46153846 14:0.46153846 15:0.53846154 16:0.53846154 17:0.53846154 18:0.46153846 19:0.46153846 20:0.53846154 21:0.46153846 22:0.61538462 23:0.61538462 24:0.69230769 25:0.61538462 26:0.69230769 27:0.61538462 28:0.61538462 29:0.53846154 30:0.53846154 31:0.61538462 32:0.46153846 33:0.46153846 34:0.38461538 35:0.46153846 36:0.46153846 37:0.38461538 38:0.38461538 39:0.46153846 40:0.61538462 41:0.61538462 42:0.53846154 43:0.53846154 44:0.53846154 45:0.53846154 46:0.46153846 47:0.30769231 48:0.53846154 49:0.53846154 50:0.76923077 51:0.69230769 52:0.76923077 53:0.76923077 54:0.76923077 55:0.69230769 56:0.69230769 57:0.69230769 58:0.61538462 59:0.84615385 60:0.84615385 61:0.84615385 62:0.84615385 63:0.76923077 64:0.76923077 65:0.76923077 66:0.84615385 67:0.92307692 68:0.84615385 69:0.92307692 70:1 71:0.92307692 72:0.84615385 73:0.84615385 74:0.76923077 75:0.76923077 76:0.84615385 77:0.84615385 78:0.92307692 79:0.92307692 80:0.92307692 81:0.92307692 82:0.84615385 83:0.84615385 84:0.69230769 85:0.69230769 86:0.61538462 87:0.69230769 88:0.61538462 89:0.61538462 90:0.61538462 91:0.61538462 92:0.61538462 93:0.61538462 94:0.61538462 95:0.61538462 96:0.69230769 97:0.69230769 98:0.76923077 99:0.69230769 100:0.69230769 101:0.69230769 102:0.76923077 103:0.69230769 104:0.69230769 105:0.69230769 106:0.69230769 107:0.69230769 108:0.76923077 109:0.84615385 110:0.61538462 111:0.69230769 112:0.69230769 113:0.76923077 114:0.76923077 115:0.61538462 116:0.53846154 117:0.46153846 118:0.38461538 119:0.15384615 120:0.15384615 121:0.15384615 122:0.15384615 123:0.30769231 124:0.30769231 125:0.30769231 126:0.30769231 127:0.30769231 128:0.38461538 129:0.53846154 130:0.53846154 131:0.46153846 132:0.46153846 133:0.53846154 134:0.69230769 135:0.84615385 136:0.84615385 137:1 138:0.73626374 139:0.54945055 140:0.52747253 141:0.51648352 142:0.46153846 143:0.41758242 144:0.53846154 145:0.47252747 146:0.43956044 147:0.27472527 148:0.26373626 149:0.21978022 150:0.20879121 151:0.16483516 152:0.14285714 153:0.17582418 154:0.15384615 155:0.098901099 156:0.065934066 157:0.054945055 158:0.032967033 160:0.076923077 161:0.13186813 162:0.69230769 163:0.65934066 164:0.58241758 165:0.054945055 166:0.065934066 167:0.16483516 168:0.21978022 169:0.1978022 170:0.24175824 171:0.50549451 172:0.6043956 
0.5115698800454794 2:0.5 3:0.7 4:0.83333333 5:0.86666667 6:0.86666667 7:0.8 8:0.7 9:0.4 10:0.26666667 21:0.066666667 22:0.16666667 23:0.16666667 24:0.26666667 25:0.4 26:0.43333333 27:0.4 28:0.033333333 32:0.033333333 33:0.13333333 34:0.26666667 35:0.7 36:0.7 37:0.7 38:0.76666667 39:0.86666667 40:0.83333333 41:0.43333333 49:0.16666667 50:0.93333333 51:1 52:1 53:0.93333333 54:0.86666667 55:0.8 56:0.56666667 57:0.3 58:0.2 62:0.1 63:0.2 64:0.23333333 65:0.23333333 66:0.23333333 67:0.26666667 68:0.33333333 69:0.36666667 70:0.46666667 71:0.5 72:0.46666667 73:0.4 74:0.43333333 75:0.23333333 77:0.066666667 78:0.33333333 79:0.4 80:0.7 81:0.9 82:0.9 83:0.93333333 84:0.96666667 85:0.96666667 86:0.96666667 87:0.8 88:0.5 96:0.26666667 97:0.76666667 98:0.83333333 99:0.8 100:0.76666667 101:0.73333333 102:0.63333333 103:0.26666667 104:0.16666667 109:0.1 110:0.13333333 111:0.16666667 112:0.13333333 115:0.066666667 116:0.1 117:0.2 118:0.23333333 119:0.2 120:0.26666667 121:0.2 125:0.066666667 127:0.16666667 128:0.46666667 129:0.6 130:0.7 131:0.83333333 132:0.9 133:0.9 134:0.73333333 138:0.073529412 139:0.26470588 140:0.32352941 141:0.42647059 142:0.51470588 143:0.5 144:0.47058824 145:0.52941176 146:0.58823529 147:0.61764706 148:0.61764706 149:0.64705882 150:0.66176471 151:0.69117647 152:0.73529412 153:0.82352941 154:0.94117647 155:0.95588235 156:0.97058824 157:0.97058824 158:1 159:0.95588235 160:0.79411765 161:0.72058824 162:0.66176471 163:0.63235294 164:0.60294118 165:0.55882353 166:0.48529412 167:0.42647059 168:0.29411765 169:0.22058824 170:0.14705882 171:0.10294118 172:0.088235294 
4.908546042162861 1:0.41935484 2:0.32258065 3:0.096774194 5:0.35483871 6:0.83870968 7:1 8:0.5483871 9:0.19354839 10:0.16129032 11:0.096774194 12:0.064516129 13:0.064516129 14:0.064516129 15:0.064516129 16:0.064516129 17:0.096774194 18:0.064516129 19:0.096774194 20:0.19354839 21:0.22580645 22:0.25806452 23:0.25806452 24:0.25806452 25:0.25806452 26:0.29032258 27:0.41935484 28:0.51612903 29:0.70967742 30:0.61290323 31:0.4516129 32:0.19354839 33:0.096774194 34:0.096774194 35:0.096774194 36:0.096774194 37:0.096774194 38:0.096774194 39:0.096774194 40:0.096774194 41:0.096774194 42:0.096774194 43:0.096774194 44:0.064516129 45:0.032258065 48:0.032258065 49:0.90322581 50:0.64516129 51:0.32258065 52:0.16129032 53:0.12903226 54:0.12903226 55:0.096774194 56:0.096774194 57:0.096774194 58:0.12903226 59:0.12903226 60:0.12903226 61:0.12903226 62:0.096774194 63:0.096774194 64:0.096774194 65:0.19354839 66:0.25806452 67:0.22580645 68:0.25806452 69:0.35483871 70:0.35483871 71:0.38709677 72:0.4516129 73:0.41935484 74:0.25806452 75:0.096774194 76:0.16129032 77:0.22580645 78:0.22580645 79:0.19354839 80:0.19354839 81:0.12903226 82:0.16129032 83:0.096774194 84:0.096774194 85:0.064516129 86:0.032258065 87:0.064516129 88:0.12903226 89:0.32258065 90:0.83870968 91:0.83870968 92:0.90322581 93:0.70967742 94:0.19354839 95:0.12903226 96:0.12903226 97:0.096774194 98:0.12903226 99:0.12903226 100:0.12903226 101:0.12903226 102:0.096774194 103:0.096774194 104:0.12903226 105:0.096774194 106:0.064516129 107:0.032258065 108:0.032258065 109:0.19354839 110:0.22580645 111:0.29032258 112:0.38709677 113:0.48387097 114:0.61290323 115:0.77419355 116:0.83870968 117:0.67741935 118:0.5483871 119:0.38709677 120:0.22580645 121:0.16129032 122:0.096774194 123:0.096774194 124:0.096774194 125:0.096774194 126:0.096774194 127:0.096774194 128:0.096774194 129:0.16129032 130:0.22580645 131:0.25806452 132:0.29032258 133:0.32258065 134:0.29032258 135:0.29032258 136:0.22580645 137:1 138:0.95798319 139:0.76470588 140:0.31092437 141:0.15966387 142:0.13445378 143:0.11764706 144:0.11764706 145:0.11764706 146:0.11764706 147:0.14285714 148:0.16806723 149:0.14285714 150:0.14285714 151:0.1512605 152:0.16806723 153:0.15966387 154:0.18487395 155:0.20168067 156:0.22689076 157:0.24369748 158:0.21848739 159:0.18487395 160:0.15966387 161:0.15966387 162:0.22689076 163:0.27731092 164:0.32773109 165:0.29411765 166:0.30252101 167:0.26890756 168:0.1092437 169:0.016806723 170:0.033613445 171:0.084033613 172:0.1092437 
0.879089011540434 5:0.1 6:0.3 7:0.15 8:0.05 10:0.05 11:0.25 12:0.5 13:0.6 14:0.8 15:0.85 16:0.8 17:0.75 18:0.65 19:0.5 20:0.45 21:0.35 27:0.05 28:0.05 29:0.1 30:0.1 34:0.05 35:0.05 37:0.2 38:0.2 39:0.15 40:0.05 43:0.05 44:0.1 45:0.1 46:0.1 47:0.1 51:0.25 52:0.45 53:0.6 54:0.8 55:1 56:0.95 57:1 58:0.75 59:0.65 60:0.7 61:0.5 62:0.3 63:0.1 65:0.05 66:0.15 67:0.15 68:0.05 73:0.15 74:0.15 78:0.15 79:0.45 80:0.45 81:0.45 82:0.45 83:0.5 84:0.5 85:0.45 86:0.4 87:0.25 98:0.2 99:0.2 100:0.2 108:0.05 109:0.2 110:0.2 111:0.05 113:0.15 114:0.5 115:0.55 116:0.55 117:0.55 118:0.6 119:0.75 120:0.5 121:0.3 122:0.2 123:0.15 124:0.1 127:0.15 128:0.2 129:0.25 130:0.25 131:0.2 132:0.2 133:0.05 139:0.068965517 140:0.4137931 141:0.65517241 142:0.34482759 143:0.44827586 144:0.62068966 145:0.68965517 146:0.65517241 147:0.75862069 148:0.68965517 149:0.72413793 150:0.75862069 151:0.62068966 152:0.51724138 153:0.68965517 154:0.65517241 155:0.68965517 156:0.75862069 157:0.89655172 158:1 159:0.82758621 160:0.79310345 161:0.72413793 162:0.75862069 163:0.86206897 164:0.89655172 165:0.65517241 166:0.4137931 167:0.4137931 168:0.34482759 169:0.17241379 170:0.13793103 171:0.13793103 
0.7090866075935852 1:0.27777778 2:0.22222222 3:0.11111111 4:0.11111111 5:0.11111111 6:0.11111111 7:0.13888889 8:0.13888889 9:0.16666667 10:0.16666667 11:0.27777778 12:0.30555556 13:0.30555556 14:0.30555556 15:0.33333333 16:0.33333333 17:0.33333333 18:0.33333333 19:0.30555556 20:0.30555556 21:0.30555556 22:0.30555556 23:0.30555556 24:0.30555556 25:0.33333333 26:0.36111111 27:0.47222222 28:0.61111111 29:0.63888889 30:0.55555556 31:0.47222222 32:0.47222222 33:0.47222222 34:0.5 35:0.5 36:0.5 37:0.5 38:0.52777778 39:0.86111111 40:1 41:1 42:1 43:1 44:1 45:1 46:1 47:1 48:1 49:1 50:1 51:1 52:1 53:1 54:1 55:1 56:1 57:0.97222222 58:0.94444444 59:0.83333333 60:0.47222222 61:0.44444444 62:0.44444444 63:0.38888889 64:0.38888889 65:0.36111111 66:0.44444444 67:0.55555556 68:0.77777778 69:0.55555556 70:0.027777778 71:0.027777778 72:0.055555556 73:0.083333333 74:0.083333333 75:0.11111111 76:0.16666667 77:0.22222222 78:0.91666667 79:0.88888889 80:0.77777778 81:0.52777778 82:0.52777778 83:0.52777778 84:0.52777778 85:0.55555556 86:0.55555556 87:0.69444444 88:0.86111111 89:0.97222222 90:0.25 91:0.083333333 92:0.083333333 93:0.083333333 94:0.083333333 95:0.083333333 96:0.083333333 97:0.083333333 98:0.47222222 99:0.94444444 100:0.86111111 101:0.77777778 102:0.52777778 103:0.52777778 104:0.52777778 105:0.55555556 106:0.55555556 107:0.58333333 108:0.69444444 109:0.77777778 110:0.94444444 111:0.88888889 112:0.027777778 113:0.027777778 114:0.027777778 115:0.027777778 116:0.027777778 117:0.027777778 118:0.027777778 119:0.027777778 120:0.97222222 121:1 122:1 123:1 124:1 125:1 126:1 127:1 128:1 129:1 130:1 131:1 132:1 133:1 134:0.83333333 137:1 138:0.82307692 139:0.74615385 140:0.75384615 141:0.53846154 142:0.54615385 143:0.53846154 144:0.55384615 145:0.84615385 146:0.7 147:0.44615385 148:0.43846154 149:0.45384615 150:0.6 151:0.46153846 152:0.45384615 153:0.45384615 154:0.45384615 155:0.66153846 156:0.38461538 157:0.38461538 158:0.37692308 159:0.36153846 160:0.53076923 161:0.37692308 162:0.36153846 163:0.47692308 164:0.68461538 165:0.76153846 166:0.53076923 167:0.52307692 168:0.51538462 169:0.49230769 170:0.7 171:0.68461538 172:0.56923077 
2.574610984286932 5:0.11111111 6:0.66666667 7:0.88888889 8:1 9:0.97222222 10:0.91666667 11:0.86111111 12:0.83333333 13:0.83333333 14:0.80555556 15:0.80555556 16:0.80555556 17:0.83333333 18:0.97222222 19:0.97222222 20:0.97222222 21:1 22:1 23:1 24:1 25:1 26:0.97222222 27:0.97222222 28:0.94444444 29:0.94444444 30:0.94444444 31:0.94444444 32:0.91666667 33:0.83333333 34:0.77777778 35:0.77777778 36:0.80555556 37:0.83333333 38:0.83333333 39:0.86111111 40:0.91666667 41:0.86111111 42:0.83333333 43:0.72222222 44:0.69444444 45:0.72222222 46:0.72222222 47:0.69444444 48:0.69444444 49:0.72222222 50:0.77777778 51:0.77777778 52:0.80555556 53:0.72222222 54:0.63888889 55:0.69444444 56:0.72222222 57:0.75 58:0.77777778 59:0.77777778 60:0.66666667 61:0.69444444 62:0.72222222 63:0.63888889 64:0.63888889 65:0.63888889 66:0.69444444 67:0.72222222 68:0.63888889 69:0.61111111 70:0.75 71:0.75 72:0.77777778 73:0.80555556 74:0.86111111 75:0.83333333 76:0.80555556 77:0.72222222 78:0.77777778 79:0.80555556 80:0.88888889 81:0.91666667 82:0.91666667 83:0.86111111 84:0.77777778 85:0.72222222 86:0.66666667 87:0.72222222 88:0.75 89:0.83333333 90:0.86111111 91:0.88888889 92:0.80555556 93:0.75 94:0.66666667 95:0.66666667 96:0.69444444 97:0.72222222 98:0.66666667 99:0.75 100:0.83333333 101:0.83333333 102:0.75 103:0.69444444 104:0.77777778 105:0.75 106:0.77777778 107:1 108:1 109:0.97222222 110:0.94444444 111:0.63888889 112:0.27777778 113:0.027777778 116:0.11111111 117:0.44444444 118:0.86111111 119:0.88888889 120:0.88888889 121:0.88888889 122:0.88888889 123:0.86111111 124:0.86111111 125:0.86111111 126:0.86111111 127:0.83333333 128:0.83333333 129:0.83333333 130:0.83333333 131:0.72222222 132:0.75 133:0.75 134:0.75 135:0.75 136:0.80555556 137:0.824 138:0.824 139:0.88 140:0.984 141:1 142:1 143:0.936 144:0.76 145:0.664 146:0.552 147:0.696 148:0.816 149:1 150:0.984 151:0.992 152:1 153:1 154:1 155:1 156:0.912 157:0.656 158:0.552 159:0.536 160:0.592 161:0.736 162:1 163:1 164:1 165:1 166:0.984 167:0.92 168:0.792 169:0.744 170:0.568 171:0.416 172:0.136 
12.5 2:0.11111111 3:0.83333333 4:0.97222222 5:0.97222222 6:0.97222222 7:0.97222222 8:0.97222222 9:0.88888889 10:0.86111111 11:0.88888889 12:0.88888889 13:0.88888889 14:0.88888889 15:0.88888889 16:0.86111111 17:0.44444444 18:0.44444444 19:0.44444444 20:0.83333333 21:0.83333333 22:0.83333333 23:0.83333333 24:0.83333333 25:0.83333333 26:0.86111111 27:0.91666667 28:0.94444444 29:0.97222222 30:0.97222222 31:0.97222222 32:0.97222222 33:0.97222222 34:0.75 35:0.61111111 36:0.63888889 37:0.77777778 38:0.88888889 39:0.77777778 40:0.58333333 41:0.5 42:0.61111111 43:0.72222222 44:0.69444444 45:0.58333333 46:0.55555556 47:0.55555556 48:0.55555556 49:0.52777778 50:0.47222222 51:0.5 52:0.66666667 53:0.88888889 54:1 55:1 56:1 57:1 58:0.91666667 59:0.77777778 60:0.86111111 61:0.88888889 62:0.83333333 63:0.83333333 64:0.86111111 65:0.88888889 66:0.88888889 67:0.88888889 68:0.83333333 69:0.88888889 70:0.91666667 71:0.77777778 72:0.77777778 73:0.80555556 74:0.77777778 75:0.77777778 76:0.77777778 77:0.88888889 78:0.97222222 79:0.97222222 80:1 81:0.97222222 82:0.97222222 83:0.94444444 84:0.72222222 85:0.52777778 86:0.5 87:0.47222222 88:0.47222222 89:0.47222222 90:0.47222222 91:0.61111111 92:0.61111111 93:0.72222222 94:0.75 95:0.80555556 96:0.77777778 97:0.41666667 98:0.41666667 99:0.41666667 100:0.72222222 101:0.66666667 102:0.63888889 103:0.72222222 104:0.97222222 105:0.97222222 106:0.97222222 107:0.97222222 108:0.88888889 109:0.83333333 110:0.77777778 111:0.55555556 112:0.52777778 113:0.75 114:0.75 115:0.55555556 116:0.58333333 117:0.61111111 118:0.77777778 119:0.63888889 120:0.63888889 121:0.52777778 122:0.47222222 123:0.52777778 124:0.63888889 125:0.47222222 126:0.55555556 127:0.66666667 128:0.83333333 129:0.94444444 130:0.97222222 131:0.97222222 132:0.97222222 133:0.97222222 134:0.94444444 135:0.13888889 136:0.027777778 137:0.97744361 138:0.9924812 139:0.9924812 140:1 141:1 142:0.93984962 143:0.90225564 144:0.87218045 145:0.85714286 146:0.87969925 147:0.9924812 148:0.9924812 149:0.9924812 150:0.9924812 151:0.9924812 152:0.87218045 153:0.80451128 154:0.66917293 155:0.64661654 156:0.69924812 157:0.72180451 158:0.57894737 159:0.60902256 160:0.64661654 161:0.70676692 162:0.53383459 163:0.4887218 164:0.42857143 165:0.66917293 166:0.72180451 167:0.64661654 168:0.58646617 169:0.51879699 170:0.61654135 171:0.65413534 172:0.32330827 
0.2922969552251541 2:0.13333333 3:0.23333333 4:0.33333333 5:0.43333333 6:0.83333333 7:0.86666667 8:0.86666667 9:0.36666667 10:0.26666667 11:0.23333333 12:0.96666667 13:0.9 14:0.76666667 15:0.6 16:0.43333333 17:0.5 18:0.5 19:0.43333333 20:0.43333333 21:0.43333333 22:0.4 23:0.33333333 24:0.43333333 25:0.4 26:0.4 27:0.63333333 28:0.7 29:0.73333333 30:0.63333333 31:0.76666667 32:0.9 33:1 34:1 35:0.96666667 36:0.83333333 37:0.73333333 38:0.73333333 39:0.56666667 40:0.3 41:0.3 42:0.3 43:0.56666667 44:0.63333333 45:0.63333333 46:0.63333333 47:0.63333333 48:0.63333333 49:0.63333333 50:0.73333333 51:0.76666667 52:0.46666667 53:0.36666667 54:0.36666667 55:0.46666667 56:0.8 57:0.63333333 58:0.6 59:0.2 60:0.63333333 61:0.6 62:0.5 74:0.066666667 75:0.3 76:0.56666667 77:0.8 78:0.86666667 79:0.83333333 80:0.7 81:0.6 82:0.56666667 83:0.7 84:0.76666667 85:0.9 86:0.76666667 87:0.33333333 88:0.3 89:0.33333333 90:0.5 91:0.56666667 92:0.66666667 93:0.53333333 94:0.56666667 95:0.5 96:0.83333333 97:0.9 98:0.56666667 99:0.23333333 100:0.23333333 101:0.5 102:0.93333333 103:1 104:0.96666667 105:0.96666667 106:0.96666667 107:0.93333333 108:0.83333333 109:0.6 110:0.46666667 111:0.66666667 112:0.8 113:0.8 114:0.56666667 115:0.4 116:0.4 117:0.43333333 118:0.53333333 119:0.6 120:0.4 121:0.2 122:0.2 123:0.3 124:0.53333333 125:0.56666667 126:0.43333333 127:0.3 128:0.3 129:0.26666667 130:0.56666667 131:0.7 132:0.8 133:0.83333333 134:0.56666667 135:0.4 137:0.029126214 138:0.18446602 139:0.7961165 140:1 141:0.95145631 142:0.62135922 143:0.29126214 144:0.29126214 145:0.53398058 146:0.81553398 147:0.7184466 148:0.62135922 149:0.51456311 150:0.61165049 151:0.65048544 152:0.68932039 153:0.62135922 154:0.60194175 155:0.5631068 156:0.62135922 157:0.63106796 158:0.53398058 159:0.51456311 160:0.53398058 161:0.6407767 162:0.68932039 163:0.53398058 164:0.65048544 165:0.58252427 166:0.55339806 167:0.59223301 168:0.66990291 169:0.68932039 170:0.60194175 171:0.46601942 172:0.16504854 
6.82971197209123 2:0.20833333 3:0.29166667 4:0.29166667 5:0.58333333 6:0.83333333 7:0.95833333 8:1 9:0.75 10:0.54166667 11:0.29166667 12:0.375 13:0.41666667 14:0.41666667 15:0.45833333 16:0.375 17:0.33333333 18:0.58333333 19:0.625 20:0.58333333 21:0.5 22:0.33333333 23:0.33333333 24:0.41666667 25:0.5 26:0.45833333 27:0.33333333 28:0.33333333 29:0.29166667 30:0.45833333 31:0.45833333 32:0.41666667 33:0.33333333 34:0.33333333 35:0.625 36:0.75 37:0.625 38:0.45833333 39:0.625 40:0.79166667 41:0.83333333 42:0.79166667 43:0.625 44:0.625 45:0.70833333 46:0.625 47:0.54166667 48:0.33333333 49:0.16666667 50:0.16666667 51:0.33333333 52:0.33333333 53:0.375 54:0.33333333 55:0.45833333 56:0.66666667 57:0.75 58:0.70833333 59:0.625 60:0.33333333 61:0.33333333 62:0.33333333 63:0.54166667 64:0.625 65:0.625 66:0.58333333 67:0.875 68:1 69:0.95833333 70:0.75 71:1 72:0.95833333 73:0.875 74:0.79166667 75:0.54166667 76:0.5 77:0.41666667 78:0.16666667 79:0.125 80:0.20833333 81:0.29166667 82:0.45833333 83:0.625 84:0.66666667 85:0.70833333 86:0.79166667 87:0.75 88:0.875 89:0.70833333 90:0.625 91:0.375 92:0.16666667 93:0.16666667 94:0.20833333 95:0.20833333 96:0.20833333 97:0.29166667 98:0.54166667 99:0.875 100:0.95833333 101:0.91666667 102:0.70833333 103:0.54166667 104:0.375 105:0.41666667 106:0.375 107:0.33333333 108:0.54166667 109:0.54166667 110:0.45833333 111:0.5 112:0.5 113:0.29166667 114:0.5 115:0.54166667 116:0.625 117:0.58333333 118:0.33333333 119:0.33333333 120:0.33333333 121:0.45833333 122:0.58333333 123:0.70833333 124:0.70833333 125:0.83333333 126:0.91666667 127:0.75 128:0.70833333 129:0.375 130:0.25 131:0.25 132:0.29166667 133:0.29166667 134:0.25 135:0.125 137:0.56521739 138:0.68115942 139:0.55072464 140:0.55072464 141:0.86956522 142:0.82608696 143:0.60869565 144:0.52173913 145:0.23188406 146:0.53623188 147:0.76811594 148:0.8115942 149:0.85507246 150:0.69565217 151:0.76811594 152:0.60869565 153:0.76811594 154:0.75362319 155:0.53623188 156:0.60869565 157:0.53623188 158:0.34782609 159:0.53623188 160:0.63768116 161:1 162:0.92753623 163:0.73913043 164:0.60869565 165:0.49275362 166:0.82608696 167:0.91304348 168:0.76811594 169:0.7826087 170:0.73913043 171:0.79710145 172:0.43478261 
1.014911489406973 2:0.5 3:0.94117647 4:0.97058824 5:1 6:0.17647059 7:0.17647059 8:0.14705882 9:0.38235294 10:0.44117647 11:0.47058824 12:0.41176471 13:0.41176471 14:0.44117647 15:0.44117647 16:0.67647059 17:0.52941176 18:0.32352941 19:0.29411765 20:0.32352941 21:0.52941176 22:0.52941176 23:0.41176471 24:0.38235294 25:0.38235294 26:0.41176471 27:0.73529412 28:0.67647059 29:0.76470588 30:0.35294118 31:0.70588235 32:0.76470588 33:0.82352941 34:0.76470588 35:0.20588235 36:0.14705882 37:0.17647059 38:0.29411765 39:0.67647059 40:0.67647059 41:0.82352941 42:0.82352941 43:0.82352941 44:0.58823529 45:0.14705882 46:0.14705882 47:0.17647059 48:0.55882353 49:0.85294118 50:0.82352941 51:0.70588235 52:0.70588235 53:0.76470588 54:0.67647059 55:0.17647059 56:0.14705882 57:0.14705882 58:0.44117647 59:0.85294118 60:0.82352941 61:0.26470588 74:0.23529412 75:0.41176471 76:0.52941176 77:0.55882353 78:0.64705882 79:0.58823529 80:0.64705882 81:0.58823529 82:0.29411765 83:0.29411765 84:0.32352941 85:0.76470588 86:0.70588235 87:0.55882353 88:0.52941176 89:0.5 90:0.55882353 91:0.5 92:0.55882353 93:0.32352941 94:0.32352941 95:0.35294118 96:0.5 97:0.64705882 98:0.5 99:0.38235294 100:0.41176471 101:0.47058824 102:0.47058824 103:0.58823529 104:0.76470588 105:0.73529412 106:0.73529412 107:0.76470588 108:0.44117647 109:0.5 110:0.47058824 111:0.64705882 112:0.44117647 113:0.20588235 114:0.20588235 115:0.26470588 116:0.67647059 117:0.47058824 118:0.44117647 119:0.58823529 120:0.73529412 121:0.20588235 122:0.17647059 123:0.17647059 124:0.76470588 125:0.64705882 126:0.52941176 127:0.61764706 128:0.76470588 129:0.67647059 130:0.14705882 131:0.11764706 132:0.17647059 133:1 134:0.97058824 135:0.91176471 137:0.018518519 138:0.33333333 139:0.66666667 140:0.74074074 141:0.4537037 142:0.50925926 143:0.57407407 144:0.69444444 145:0.68518519 146:0.55555556 147:0.55555556 148:0.47222222 149:0.62962963 150:0.63888889 151:0.4537037 152:0.4537037 153:0.43518519 154:0.67592593 155:0.63888889 156:0.61111111 157:0.41666667 158:0.42592593 159:0.43518519 160:0.64814815 161:0.73148148 162:0.65740741 163:0.5 164:0.44444444 165:0.41666667 166:0.53703704 167:0.72222222 168:0.82407407 169:1 170:0.66666667 171:0.44444444 172:0.064814815 
5.071967240867297 2:0.16129032 3:0.38709677 4:0.58064516 5:0.77419355 6:0.83870968 7:0.70967742 8:0.48387097 9:0.25806452 10:0.096774194 11:0.096774194 12:0.096774194 13:0.12903226 14:0.35483871 15:0.51612903 16:0.51612903 17:0.58064516 18:0.58064516 19:0.48387097 20:0.38709677 21:0.12903226 22:0.29032258 23:0.38709677 24:0.51612903 25:0.67741935 26:0.80645161 27:0.77419355 28:0.83870968 29:0.67741935 30:0.5483871 31:0.51612903 32:0.51612903 33:0.4516129 34:0.38709677 35:0.35483871 36:0.48387097 37:0.5483871 38:0.58064516 39:0.4516129 40:0.38709677 41:0.12903226 42:0.12903226 43:0.16129032 44:0.16129032 45:0.19354839 46:0.19354839 47:0.29032258 48:0.32258065 49:0.4516129 50:0.35483871 51:0.32258065 52:0.25806452 53:0.22580645 54:0.22580645 55:0.25806452 56:0.29032258 57:0.32258065 58:0.35483871 59:0.38709677 60:0.4516129 61:0.48387097 62:0.58064516 63:0.61290323 64:0.51612903 65:0.4516129 66:0.41935484 67:0.41935484 68:0.64516129 69:0.61290323 70:0.41935484 71:0.22580645 72:0.16129032 73:0.32258065 74:0.48387097 75:0.70967742 76:0.80645161 77:0.58064516 78:0.48387097 79:0.25806452 80:0.19354839 81:0.19354839 82:0.19354839 83:0.19354839 84:0.32258065 85:0.4516129 86:0.58064516 87:0.61290323 88:0.58064516 89:0.5483871 90:0.41935484 91:0.25806452 92:0.29032258 93:0.32258065 94:0.32258065 95:0.35483871 96:0.38709677 97:0.41935484 98:0.64516129 99:0.74193548 100:0.74193548 101:0.74193548 102:0.70967742 103:0.61290323 104:0.48387097 105:0.38709677 106:0.32258065 107:0.29032258 108:0.29032258 109:0.25806452 110:0.32258065 111:0.32258065 112:0.48387097 113:0.5483871 114:0.51612903 115:0.5483871 116:0.5483871 117:0.5483871 118:0.51612903 119:0.51612903 120:0.48387097 121:0.4516129 122:0.35483871 123:0.19354839 124:0.16129032 125:0.19354839 126:0.19354839 127:0.22580645 128:0.38709677 129:0.58064516 130:0.83870968 131:1 132:0.87096774 133:0.61290323 134:0.29032258 135:0.032258065 137:0.14606742 138:0.42696629 139:0.91011236 140:0.69662921 141:0.46067416 142:0.25842697 143:0.23595506 144:0.50561798 145:0.71910112 146:0.95505618 147:0.53932584 148:0.38202247 149:0.34831461 150:0.3258427 151:0.59550562 152:0.68539326 153:0.49438202 154:0.48314607 155:0.49438202 156:0.49438202 157:0.74157303 158:0.59550562 159:0.43820225 160:0.43820225 161:0.58426966 162:0.76404494 163:0.83146067 164:0.83146067 165:0.79775281 166:0.35955056 167:0.35955056 168:0.41573034 169:0.60674157 170:0.92134831 171:1 172:0.23595506 
0.6719413165242721 12:0.2 13:0.2 14:0.2 15:0.1 18:0.2 19:0.2 20:0.1 23:0.5 24:0.4 25:0.7 26:0.8 27:0.8 28:0.9 29:0.9 30:0.6 31:0.3 32:0.2 46:0.5 47:0.7 48:0.7 49:0.5 50:0.3 62:0.1 63:0.2 64:0.1 65:0.1 66:0.2 67:0.6 68:0.9 69:0.9 70:0.9 71:0.8 72:0.9 73:0.7 74:0.6 75:0.2 76:0.3 77:0.6 78:0.8 79:1 80:0.9 81:0.8 82:0.6 83:0.5 84:0.4 85:0.2 86:0.2 87:0.2 88:0.2 89:0.1 98:0.2 99:0.3 100:0.3 101:0.3 102:0.2 106:0.2 107:0.3 108:0.3 109:0.2 110:0.3 111:0.1 142:0.12 143:0.24 144:0.56 145:0.6 146:0.56 147:0.52 148:0.4 149:0.52 150:0.44 151:0.44 152:0.4 153:0.88 154:1 155:0.56 156:0.24 158:0.12 159:0.16 160:0.08 161:0.24 162:0.36 163:0.48 164:0.4 165:0.12 167:0.16 168:0.2 169:0.36 170:0.2 171:0.2 172:0.12 
0.9455489882560139 2:0.095238095 3:0.095238095 4:0.095238095 5:0.095238095 7:0.047619048 8:0.23809524 9:0.28571429 10:0.28571429 11:0.23809524 12:0.14285714 13:0.14285714 14:0.14285714 15:0.23809524 16:0.23809524 17:0.28571429 18:0.28571429 19:0.28571429 20:0.28571429 21:0.33333333 22:0.33333333 23:0.33333333 24:0.28571429 25:0.28571429 26:0.095238095 27:0.047619048 36:0.19047619 37:0.28571429 38:0.33333333 39:0.33333333 40:0.23809524 41:0.095238095 66:0.095238095 67:0.42857143 68:0.76190476 69:0.95238095 70:1 71:0.85714286 72:0.61904762 73:0.095238095 74:0.095238095 77:0.095238095 78:0.095238095 91:0.14285714 92:0.14285714 93:0.095238095 94:0.095238095 95:0.095238095 96:0.14285714 97:0.47619048 98:0.76190476 99:0.9047619 100:0.85714286 101:0.95238095 102:0.9047619 103:0.47619048 106:0.047619048 107:0.23809524 108:0.66666667 109:0.76190476 110:0.85714286 111:0.80952381 112:0.71428571 113:0.57142857 114:0.28571429 115:0.28571429 128:0.095238095 129:0.33333333 130:0.57142857 131:0.57142857 132:0.57142857 133:0.38095238 134:0.19047619 138:0.125 139:0.1875 140:0.1875 141:0.25 142:0.28125 143:0.34375 144:0.46875 145:0.46875 146:0.5625 147:0.5625 148:0.46875 149:0.40625 150:0.65625 151:0.53125 152:0.28125 153:0.34375 154:0.46875 155:0.4375 156:0.4375 157:0.40625 158:0.4375 159:0.28125 160:0.40625 161:0.78125 162:0.96875 163:1 164:0.8125 165:0.9375 166:0.78125 167:0.78125 168:0.65625 169:0.59375 170:0.46875 171:0.15625 
2.047579119299795 2:0.027777778 3:0.72222222 4:1 5:0.97222222 6:0.97222222 7:0.97222222 8:0.94444444 9:0.88888889 10:0.88888889 11:0.91666667 12:0.91666667 13:0.91666667 14:0.94444444 15:0.94444444 16:0.94444444 17:0.72222222 18:0.55555556 19:0.5 20:0.55555556 21:0.86111111 22:0.86111111 23:0.83333333 24:0.80555556 25:0.83333333 26:0.83333333 27:0.83333333 28:0.86111111 29:0.91666667 30:0.91666667 31:0.91666667 32:0.97222222 33:0.97222222 34:0.86111111 35:0.75 36:0.58333333 37:0.61111111 38:0.69444444 39:0.77777778 40:0.72222222 41:0.63888889 42:0.5 43:0.52777778 44:0.55555556 45:0.61111111 46:0.61111111 47:0.58333333 48:0.55555556 49:0.52777778 50:0.66666667 51:0.52777778 52:0.52777778 53:0.52777778 54:0.63888889 55:0.69444444 56:0.86111111 57:0.88888889 58:0.88888889 59:0.91666667 60:0.83333333 61:0.86111111 62:0.86111111 63:0.83333333 64:0.83333333 65:0.86111111 66:0.86111111 67:0.86111111 68:0.86111111 69:0.88888889 70:0.83333333 71:0.75 72:0.72222222 73:0.83333333 74:0.83333333 75:0.86111111 76:0.91666667 77:0.83333333 78:0.88888889 79:0.63888889 80:0.63888889 81:0.83333333 82:0.80555556 83:0.75 84:0.75 85:0.66666667 86:0.61111111 87:0.61111111 88:0.69444444 89:0.69444444 90:0.66666667 91:0.69444444 92:0.63888889 93:0.63888889 94:0.86111111 95:0.88888889 96:0.91666667 97:0.91666667 98:0.77777778 99:0.77777778 100:0.69444444 101:0.69444444 102:0.72222222 103:0.72222222 104:0.69444444 105:0.63888889 106:0.66666667 107:0.77777778 108:0.69444444 109:0.58333333 110:0.61111111 111:0.69444444 112:0.66666667 113:0.72222222 114:0.80555556 115:0.80555556 116:0.75 117:0.77777778 118:0.80555556 119:0.75 120:0.75 121:0.86111111 122:0.86111111 123:0.86111111 124:0.86111111 125:0.86111111 126:0.86111111 127:0.83333333 128:0.83333333 129:0.25 137:0.29133858 138:0.72440945 139:1 140:1 141:0.97637795 142:0.91338583 143:0.88976378 144:0.88976378 145:0.77952756 146:0.61417323 147:0.53543307 148:0.79527559 149:0.97637795 150:0.92913386 151:0.96850394 152:0.8976378 153:0.81102362 154:0.77952756 155:0.75590551 156:0.64566929 157:0.64566929 158:0.5984252 159:0.77952756 160:0.61417323 161:0.52755906 162:0.54330709 163:0.73228346 164:0.74015748 165:0.7007874 166:0.65354331 167:0.73228346 168:0.95275591 169:0.97637795 170:0.97637795 171:0.77165354 172:0.54330709 
0.2779177011412498 1:0.13888889 2:0.13888889 3:0.13888889 4:0.11111111 5:0.13888889 6:0.19444444 7:0.25 8:0.30555556 9:0.25 10:0.36111111 11:0.5 12:0.47222222 13:0.52777778 14:0.58333333 15:0.55555556 16:0.66666667 17:0.83333333 18:0.88888889 19:0.86111111 20:0.88888889 21:0.91666667 22:0.86111111 23:0.83333333 24:0.88888889 25:1 26:1 27:0.88888889 28:0.86111111 29:0.86111111 30:0.91666667 31:0.91666667 32:0.88888889 33:0.88888889 34:0.80555556 35:0.77777778 36:0.77777778 37:0.83333333 38:0.88888889 39:0.91666667 40:0.91666667 41:0.86111111 42:0.86111111 43:0.88888889 44:0.88888889 45:0.91666667 46:0.97222222 47:1 48:1 49:0.97222222 50:0.91666667 51:0.86111111 52:0.80555556 53:0.72222222 54:0.75 55:0.69444444 56:0.80555556 57:0.77777778 58:0.66666667 59:0.69444444 60:0.66666667 61:0.63888889 62:0.61111111 63:0.55555556 64:0.61111111 65:0.61111111 66:0.63888889 67:0.55555556 68:0.55555556 69:0.55555556 70:0.61111111 71:0.80555556 72:0.77777778 73:0.77777778 74:0.80555556 75:0.80555556 76:0.80555556 77:0.77777778 78:0.72222222 79:0.66666667 80:0.58333333 81:0.58333333 82:0.61111111 83:0.63888889 84:0.55555556 85:0.61111111 86:0.58333333 87:0.58333333 88:0.58333333 89:0.66666667 90:0.61111111 91:0.61111111 92:0.63888889 93:0.72222222 94:0.69444444 95:0.75 96:0.83333333 97:0.83333333 98:0.91666667 99:0.91666667 100:0.88888889 101:0.88888889 102:0.86111111 103:0.86111111 104:0.80555556 105:0.77777778 106:0.88888889 107:0.88888889 108:0.86111111 109:0.86111111 110:0.86111111 111:0.77777778 112:0.75 113:0.75 114:0.80555556 115:0.86111111 116:0.91666667 117:0.91666667 118:0.91666667 119:0.91666667 120:0.86111111 121:0.94444444 122:0.94444444 123:0.97222222 124:0.97222222 125:0.91666667 126:0.88888889 127:0.83333333 128:0.88888889 129:0.94444444 130:0.88888889 131:0.86111111 132:0.86111111 133:0.80555556 134:0.66666667 135:0.11111111 137:0.8677686 138:0.89256198 139:0.90082645 140:0.92561983 141:0.94214876 142:0.95041322 143:0.94214876 144:0.95867769 145:0.94214876 146:0.82644628 147:0.73553719 148:0.70247934 149:0.6446281 150:0.7768595 151:0.81818182 152:0.70247934 153:0.69421488 154:0.81818182 155:0.76859504 156:0.78512397 157:0.89256198 158:0.95041322 159:1 160:0.97520661 161:0.90909091 162:0.85123967 163:0.83471074 164:0.76859504 165:0.49586777 166:0.65289256 167:0.74380165 168:0.62809917 169:0.80991736 170:0.72727273 171:0.92561983 172:0.99173554 
0.4725301328800635 1:0.94444444 2:0.94444444 3:0.94444444 4:0.86111111 5:0.41666667 11:0.027777778 12:0.027777778 13:0.33333333 14:0.63888889 15:0.77777778 16:0.80555556 17:0.80555556 18:0.80555556 19:0.80555556 20:0.80555556 21:0.80555556 22:0.77777778 23:0.77777778 24:0.77777778 25:0.77777778 26:0.80555556 27:0.80555556 28:0.80555556 29:0.80555556 30:0.80555556 31:0.77777778 32:0.77777778 33:0.83333333 34:0.91666667 35:0.97222222 36:0.97222222 37:0.97222222 38:0.97222222 39:0.97222222 40:0.97222222 41:0.97222222 42:0.97222222 43:0.97222222 44:0.97222222 45:0.97222222 46:0.97222222 47:0.97222222 48:0.97222222 49:0.97222222 50:0.97222222 51:0.97222222 52:0.97222222 53:0.97222222 54:0.97222222 55:0.97222222 56:0.97222222 57:0.88888889 58:0.77777778 59:0.72222222 60:0.61111111 61:0.58333333 62:0.47222222 63:0.38888889 64:0.33333333 65:0.30555556 66:0.38888889 67:0.41666667 68:0.58333333 69:0.63888889 70:0.66666667 71:0.66666667 72:0.66666667 73:0.63888889 74:0.61111111 75:0.55555556 76:0.38888889 77:0.27777778 78:0.027777778 80:0.055555556 81:0.083333333 82:0.11111111 83:0.13888889 84:0.25 85:0.38888889 86:0.52777778 87:0.52777778 88:0.52777778 89:0.52777778 90:0.38888889 91:0.27777778 92:0.25 93:0.19444444 94:0.19444444 95:0.19444444 96:0.19444444 97:0.25 98:0.27777778 99:0.33333333 100:0.47222222 101:0.5 102:0.5 103:0.44444444 104:0.41666667 105:0.33333333 106:0.19444444 107:0.19444444 108:0.19444444 109:0.19444444 110:0.19444444 111:0.19444444 112:0.22222222 113:0.52777778 114:0.61111111 115:0.61111111 116:0.69444444 117:0.77777778 118:0.80555556 119:0.88888889 120:0.91666667 121:0.94444444 122:1 123:0.97222222 124:0.97222222 125:0.97222222 126:0.97222222 127:0.97222222 128:0.94444444 129:0.94444444 130:0.83333333 131:0.80555556 132:0.77777778 133:0.75 134:0.80555556 135:0.75 136:0.75 137:1 138:0.9140625 139:0.8828125 140:0.8515625 141:0.84375 142:0.59375 143:0.609375 144:0.6171875 145:0.6171875 146:0.6328125 147:0.9296875 148:0.9140625 149:0.7578125 150:0.6328125 151:0.46875 152:0.484375 153:0.484375 154:0.5703125 155:0.53125 156:0.5546875 157:0.71875 158:0.71875 159:0.5390625 160:0.546875 161:0.5625 162:0.5703125 163:0.5703125 164:0.703125 165:0.75 166:0.7421875 167:0.734375 168:0.75 169:0.671875 170:0.6015625 171:0.484375 172:0.0546875 
1.034374769489474 2:0.083333333 3:0.20833333 4:0.25 5:0.33333333 6:0.375 7:0.41666667 8:0.45833333 9:0.45833333 10:0.375 11:0.25 12:0.20833333 13:0.083333333 20:0.083333333 21:0.29166667 22:0.41666667 23:0.5 24:0.625 25:0.83333333 26:0.91666667 27:0.95833333 28:0.91666667 29:0.91666667 30:0.95833333 31:0.91666667 32:0.875 33:0.91666667 34:0.91666667 35:0.875 36:0.875 37:0.91666667 38:0.91666667 39:0.91666667 40:0.91666667 41:0.91666667 42:0.91666667 43:0.91666667 44:0.91666667 45:0.91666667 46:0.95833333 47:0.91666667 48:0.91666667 49:0.95833333 50:0.95833333 51:0.95833333 52:0.91666667 53:0.875 54:0.875 55:0.75 56:0.70833333 57:0.54166667 58:0.5 59:0.54166667 60:0.91666667 61:0.91666667 62:0.91666667 63:0.83333333 64:0.66666667 65:0.625 66:0.66666667 67:0.75 68:0.79166667 69:0.83333333 70:0.875 71:0.875 72:0.91666667 73:0.91666667 74:0.91666667 75:0.91666667 76:0.95833333 77:0.95833333 78:0.875 79:0.875 80:0.91666667 81:0.83333333 82:0.79166667 83:0.83333333 84:1 85:0.95833333 86:0.95833333 87:0.95833333 88:0.95833333 89:0.95833333 90:0.95833333 91:0.91666667 92:0.91666667 93:0.91666667 94:0.91666667 95:0.875 96:0.875 97:0.875 98:0.875 99:0.83333333 100:0.83333333 101:0.83333333 102:0.875 103:0.875 104:0.875 105:0.875 106:0.83333333 107:0.54166667 108:0.5 109:0.41666667 110:0.20833333 111:0.16666667 112:0.20833333 113:0.33333333 114:0.20833333 115:0.29166667 116:0.70833333 117:0.75 118:0.83333333 119:0.91666667 120:0.91666667 121:0.91666667 122:0.875 123:0.83333333 124:0.79166667 125:0.75 126:0.58333333 127:0.54166667 128:0.58333333 129:0.5 130:0.5 131:0.45833333 132:0.33333333 133:0.25 134:0.20833333 135:0.16666667 136:0.125 138:0.07 139:0.26 140:0.46 141:0.57 142:0.62 143:0.63 144:0.68 145:0.7 146:0.77 147:0.84 148:0.89 149:0.89 150:0.95 151:0.98 152:0.99 153:0.99 154:1 155:1 156:1 157:1 158:0.99 159:0.99 160:0.97 161:0.74 162:0.59 163:0.48 164:0.4 165:0.37 166:0.34 167:0.25 168:0.25 169:0.2 170:0.15 171:0.1 172:0.08 
4.212645624359307 3:0.13636364 4:0.13636364 5:0.18181818 6:0.13636364 7:0.18181818 8:0.13636364 9:0.13636364 10:0.13636364 11:0.18181818 12:0.18181818 13:0.22727273 14:0.40909091 15:0.45454545 16:0.59090909 17:0.63636364 18:0.54545455 19:0.40909091 20:0.31818182 21:0.18181818 22:0.090909091 25:0.045454545 26:0.090909091 27:0.090909091 28:0.045454545 30:0.27272727 31:0.36363636 32:0.45454545 33:0.54545455 34:0.45454545 35:0.5 36:0.54545455 37:0.5 38:0.54545455 39:0.68181818 40:0.5 41:0.45454545 42:0.45454545 43:0.5 44:0.5 45:0.40909091 46:0.090909091 48:0.090909091 49:0.045454545 50:0.22727273 51:0.22727273 52:0.27272727 53:0.22727273 54:0.5 55:0.59090909 56:0.81818182 57:0.81818182 58:0.95454545 59:0.86363636 60:0.72727273 61:0.5 62:0.5 63:0.54545455 64:0.54545455 65:0.45454545 66:0.36363636 67:0.22727273 68:0.27272727 69:0.5 70:0.63636364 71:0.81818182 72:0.90909091 73:1 74:0.90909091 75:0.90909091 76:0.81818182 77:0.59090909 78:0.5 79:0.40909091 80:0.22727273 81:0.22727273 82:0.18181818 83:0.18181818 84:0.40909091 85:0.54545455 86:0.72727273 87:1 88:0.95454545 89:0.86363636 90:0.5 91:0.13636364 92:0.27272727 93:0.22727273 94:0.22727273 95:0.13636364 96:0.13636364 97:0.13636364 98:0.045454545 99:0.18181818 100:0.13636364 101:0.13636364 102:0.13636364 103:0.18181818 104:0.22727273 105:0.27272727 106:0.27272727 107:0.27272727 108:0.22727273 109:0.13636364 110:0.13636364 111:0.18181818 112:0.18181818 113:0.18181818 114:0.27272727 115:0.36363636 116:0.18181818 117:0.22727273 118:0.27272727 119:0.45454545 120:0.59090909 121:0.81818182 122:0.68181818 123:0.5 124:0.5 125:0.54545455 126:0.5 127:0.40909091 131:0.045454545 132:0.045454545 133:0.045454545 137:0.046875 138:0.09375 139:0.125 140:0.125 141:0.171875 142:0.296875 143:0.234375 144:0.203125 145:0.140625 146:0.3125 147:0.625 148:0.640625 149:0.609375 150:0.609375 151:0.671875 152:0.984375 153:1 154:0.953125 155:0.96875 156:0.875 157:0.671875 158:0.6875 159:0.671875 160:0.5 161:0.53125 162:0.546875 163:0.5 164:0.546875 165:0.390625 166:0.375 167:0.234375 168:0.078125 169:0.15625 170:0.421875 171:0.390625 
7.503458453860026 3:0.083333333 4:0.30555556 5:0.5 6:0.83333333 7:0.83333333 8:0.83333333 9:0.83333333 10:0.83333333 11:0.83333333 12:0.83333333 13:0.83333333 14:0.83333333 15:0.83333333 16:0.80555556 17:0.77777778 18:0.77777778 19:0.80555556 20:0.83333333 21:0.80555556 22:0.80555556 23:0.83333333 24:0.75 25:0.77777778 26:0.83333333 27:0.83333333 28:0.83333333 29:0.83333333 30:0.66666667 31:0.61111111 32:0.61111111 33:0.69444444 34:0.77777778 35:0.80555556 36:0.77777778 37:0.77777778 38:0.72222222 39:0.66666667 40:0.63888889 41:0.69444444 42:0.75 43:0.83333333 44:0.83333333 45:0.83333333 46:0.83333333 47:0.83333333 48:0.83333333 49:0.80555556 50:0.83333333 51:0.83333333 52:0.83333333 53:0.83333333 54:0.83333333 55:0.83333333 56:0.80555556 57:0.80555556 58:0.80555556 59:0.80555556 60:0.63888889 61:0.63888889 62:0.63888889 63:0.83333333 64:0.83333333 65:0.86111111 66:0.86111111 67:0.86111111 68:0.86111111 69:0.86111111 70:0.75 71:0.69444444 72:0.69444444 73:0.77777778 74:0.77777778 75:0.75 76:0.75 77:0.75 78:0.75 79:0.83333333 80:0.86111111 81:0.86111111 82:0.83333333 83:0.83333333 84:0.80555556 85:0.86111111 86:0.83333333 87:0.80555556 88:0.72222222 89:0.72222222 90:0.83333333 91:0.86111111 92:0.91666667 93:0.91666667 94:0.91666667 95:0.91666667 96:0.86111111 97:0.83333333 98:0.80555556 99:0.80555556 100:0.80555556 101:0.86111111 102:0.77777778 103:0.80555556 104:0.88888889 105:0.94444444 106:0.94444444 107:0.94444444 108:0.91666667 109:0.91666667 110:0.88888889 111:0.83333333 112:0.80555556 113:0.80555556 114:0.88888889 115:0.88888889 116:0.94444444 117:0.94444444 118:0.94444444 119:0.94444444 120:0.94444444 121:0.94444444 122:0.94444444 123:0.94444444 124:0.97222222 125:0.97222222 126:0.97222222 127:0.97222222 128:0.97222222 129:0.97222222 130:1 131:0.86111111 132:0.61111111 133:0.36111111 134:0.083333333 137:0.13178295 138:0.1627907 139:0.24806202 140:0.35658915 141:0.52713178 142:0.60465116 143:0.90697674 144:0.91472868 145:0.84496124 146:0.79069767 147:0.79844961 148:0.73643411 149:0.72868217 150:0.86046512 151:0.86821705 152:0.92248062 153:1 154:0.99224806 155:0.99224806 156:0.99224806 157:0.99224806 158:0.99224806 159:0.99224806 160:0.99224806 161:0.96124031 162:0.98449612 163:0.99224806 164:0.99224806 165:0.99224806 166:0.99224806 167:0.99224806 168:0.99224806 169:1 170:1 171:0.93023256 172:0.45736434 
2.026714280114776 3:0.076923077 4:0.15384615 5:0.19230769 6:0.076923077 30:0.19230769 31:0.26923077 32:0.26923077 33:0.46153846 34:0.65384615 35:0.88461538 36:1 37:0.92307692 38:0.46153846 39:0.34615385 40:0.11538462 54:0.15384615 55:0.19230769 56:0.11538462 68:0.26923077 69:0.61538462 70:0.73076923 71:0.73076923 72:0.57692308 73:0.42307692 75:0.11538462 78:0.11538462 79:0.23076923 80:0.26923077 81:0.11538462 83:0.15384615 84:0.26923077 85:0.30769231 86:0.34615385 87:0.38461538 88:0.34615385 89:0.23076923 91:0.038461538 128:0.30769231 129:0.38461538 130:0.46153846 131:0.46153846 132:0.46153846 133:0.38461538 134:0.26923077 139:0.090909091 140:0.13636364 141:0.090909091 142:0.18181818 143:0.27272727 144:0.40909091 145:0.45454545 146:0.68181818 147:0.72727273 148:0.86363636 149:0.81818182 150:0.95454545 151:0.95454545 152:1 153:0.95454545 154:0.86363636 155:0.68181818 156:0.59090909 157:0.36363636 158:0.18181818 159:0.090909091 160:0.045454545 161:0.13636364 162:0.45454545 163:0.77272727 164:0.90909091 165:0.95454545 166:0.86363636 167:0.81818182 168:0.72727273 169:0.54545455 170:0.45454545 171:0.22727273 172:0.090909091 
5.113799971714974 1:0.18181818 2:0.21212121 3:0.21212121 4:0.24242424 5:0.27272727 6:0.3030303 7:0.27272727 8:0.27272727 9:0.24242424 10:0.24242424 11:0.27272727 12:0.27272727 13:0.42424242 14:0.45454545 15:0.48484848 16:0.48484848 17:0.54545455 18:0.54545455 19:0.54545455 20:0.57575758 21:0.57575758 22:0.66666667 23:0.72727273 24:0.72727273 25:0.72727273 26:0.78787879 27:1 28:1 29:0.96969697 30:0.93939394 31:0.90909091 32:0.81818182 33:0.81818182 34:0.81818182 35:0.72727273 36:0.78787879 37:0.72727273 38:0.75757576 39:0.84848485 40:0.87878788 41:0.90909091 42:0.84848485 43:0.84848485 44:0.78787879 45:0.6969697 46:0.72727273 47:0.75757576 48:0.72727273 49:0.60606061 50:0.57575758 51:0.57575758 52:0.60606061 53:0.60606061 54:0.57575758 55:0.57575758 56:0.60606061 57:0.6969697 58:0.6969697 59:0.78787879 60:0.78787879 61:0.72727273 62:0.66666667 63:0.63636364 64:0.60606061 65:0.66666667 66:0.63636364 67:0.6969697 68:0.72727273 69:0.6969697 70:0.6969697 71:0.66666667 72:0.66666667 73:0.6969697 74:0.6969697 75:0.78787879 76:0.78787879 77:0.6969697 78:0.72727273 79:0.75757576 80:0.78787879 81:0.78787879 82:0.81818182 83:0.78787879 84:0.84848485 85:0.87878788 86:0.84848485 87:0.84848485 88:0.81818182 89:0.84848485 90:0.84848485 91:0.87878788 92:0.81818182 93:0.84848485 94:0.81818182 95:0.84848485 96:0.75757576 97:0.75757576 98:0.78787879 99:0.84848485 100:0.81818182 101:0.87878788 102:0.81818182 103:0.72727273 104:0.6969697 105:0.66666667 106:0.63636364 107:0.66666667 108:0.60606061 109:0.6969697 110:0.66666667 111:0.63636364 112:0.57575758 113:0.60606061 114:0.60606061 115:0.57575758 116:0.54545455 117:0.54545455 118:0.48484848 119:0.51515152 120:0.45454545 121:0.39393939 122:0.36363636 123:0.3030303 124:0.24242424 125:0.24242424 126:0.24242424 127:0.21212121 128:0.12121212 129:0.15151515 130:0.15151515 131:0.15151515 132:0.12121212 133:0.090909091 134:0.090909091 135:0.03030303 136:0.03030303 137:0.74038462 138:0.52884615 139:0.56730769 140:0.63461538 141:0.56730769 142:0.48076923 143:0.64423077 144:0.84615385 145:0.74038462 146:0.81730769 147:0.86538462 148:0.67307692 149:0.73076923 150:0.70192308 151:0.55769231 152:0.45192308 153:0.47115385 154:0.73076923 155:0.81730769 156:0.91346154 157:0.93269231 158:0.79807692 159:0.85576923 160:0.81730769 161:0.75961538 162:0.80769231 163:0.91346154 164:1 165:0.91346154 166:0.75 167:0.68269231 168:0.71153846 169:0.79807692 170:0.76923077 171:0.74038462 172:0.72115385 
0.4228548717197168 1:0.15789474 2:0.15789474 3:0.15789474 4:0.26315789 5:0.36842105 6:0.42105263 7:0.42105263 8:0.47368421 9:0.47368421 10:0.52631579 11:0.52631579 12:0.47368421 13:0.42105263 14:0.31578947 15:0.31578947 16:0.26315789 17:0.26315789 18:0.26315789 19:0.31578947 20:0.42105263 21:0.36842105 22:0.42105263 23:0.52631579 24:0.63157895 25:0.63157895 26:0.57894737 27:0.52631579 28:0.42105263 29:0.42105263 30:0.57894737 31:0.63157895 32:0.57894737 33:0.73684211 34:0.68421053 35:0.63157895 36:0.68421053 37:0.52631579 38:0.57894737 39:0.68421053 40:0.63157895 41:0.63157895 42:0.78947368 43:0.89473684 44:1 45:0.73684211 46:0.42105263 47:0.31578947 48:0.15789474 49:0.21052632 50:0.52631579 51:0.57894737 52:0.63157895 53:0.63157895 54:0.57894737 55:0.47368421 56:0.47368421 57:0.52631579 58:0.52631579 59:0.52631579 60:0.47368421 61:0.52631579 62:0.47368421 63:0.36842105 64:0.57894737 65:0.68421053 66:0.73684211 67:0.68421053 68:0.84210526 69:0.89473684 70:0.94736842 71:0.78947368 72:0.57894737 73:0.26315789 74:0.42105263 75:0.31578947 76:0.47368421 77:0.63157895 78:0.73684211 79:0.36842105 80:0.31578947 81:0.36842105 82:0.73684211 83:0.89473684 84:0.78947368 85:0.63157895 86:0.52631579 87:0.57894737 88:0.52631579 89:0.47368421 90:0.52631579 91:0.47368421 92:0.36842105 93:0.31578947 94:0.31578947 95:0.26315789 96:0.26315789 97:0.36842105 98:0.42105263 99:0.47368421 100:0.52631579 101:0.57894737 102:0.57894737 103:0.47368421 104:0.47368421 105:0.52631579 106:0.52631579 107:0.47368421 108:0.57894737 109:0.47368421 110:0.36842105 111:0.36842105 112:0.52631579 113:0.63157895 114:0.68421053 115:0.78947368 116:0.73684211 117:0.63157895 118:0.63157895 119:0.73684211 120:0.78947368 121:0.84210526 122:0.84210526 123:0.68421053 124:0.57894737 125:0.42105263 126:0.36842105 127:0.47368421 128:0.42105263 129:0.31578947 130:0.31578947 131:0.26315789 132:0.15789474 133:0.10526316 137:0.016528926 138:0.43801653 139:0.26446281 140:0.20661157 141:0.14876033 142:0.19008264 143:0.23140496 144:0.24793388 145:0.25619835 146:0.19834711 147:0.46280992 148:0.19008264 149:0.20661157 150:0.23966942 151:0.16528926 152:0.20661157 153:0.23966942 154:0.23140496 155:0.23140496 156:0.2892562 157:0.27272727 158:0.23140496 159:0.19834711 160:0.26446281 161:0.23966942 162:0.21487603 163:0.099173554 164:0.11570248 165:0.24793388 166:0.31404959 167:0.38842975 168:0.36363636 169:0.49586777 170:0.65289256 171:0.98347107 172:1 
0.6708726918450425 1:0.052631579 2:0.15789474 3:0.21052632 4:0.36842105 5:0.42105263 6:0.31578947 7:0.26315789 8:0.31578947 9:0.57894737 10:0.73684211 11:0.89473684 12:0.47368421 13:0.10526316 14:0.052631579 15:0.26315789 16:0.42105263 17:0.26315789 18:0.15789474 19:0.15789474 20:0.31578947 21:0.21052632 22:0.15789474 29:0.052631579 30:0.26315789 31:0.15789474 32:0.26315789 33:0.36842105 34:0.63157895 35:0.84210526 36:0.78947368 37:0.84210526 38:0.78947368 39:0.73684211 40:0.57894737 41:0.15789474 42:0.21052632 43:0.10526316 44:0.15789474 45:0.26315789 46:0.47368421 47:0.47368421 48:0.47368421 49:0.15789474 50:0.42105263 51:0.57894737 52:0.68421053 53:0.73684211 54:0.52631579 55:0.57894737 56:0.63157895 57:0.78947368 58:0.42105263 59:0.42105263 60:0.31578947 61:0.63157895 62:0.36842105 63:0.21052632 64:0.15789474 65:0.21052632 66:0.052631579 67:0.052631579 68:0.26315789 69:0.36842105 70:0.57894737 71:0.52631579 72:0.68421053 73:0.47368421 74:0.26315789 75:0.26315789 77:0.052631579 79:0.052631579 80:0.052631579 82:0.052631579 83:0.052631579 85:0.15789474 86:0.10526316 88:0.052631579 89:0.21052632 90:0.26315789 91:0.15789474 93:0.10526316 94:0.10526316 95:0.10526316 96:0.10526316 97:0.21052632 98:0.10526316 99:0.21052632 100:0.42105263 101:0.57894737 102:0.52631579 103:0.47368421 104:0.42105263 105:0.63157895 106:0.68421053 107:0.68421053 108:0.68421053 109:1 110:0.89473684 111:0.73684211 112:0.68421053 113:0.84210526 114:0.73684211 115:0.68421053 116:0.52631579 117:0.31578947 118:0.26315789 119:0.15789474 120:0.10526316 124:0.10526316 125:0.10526316 126:0.15789474 128:0.052631579 129:0.21052632 130:0.10526316 131:0.10526316 132:0.21052632 133:0.052631579 134:0.052631579 135:0.052631579 137:0.26190476 138:0.54761905 139:0.85714286 140:0.52380952 141:0.54761905 142:0.69047619 143:0.57142857 144:0.45238095 145:0.35714286 146:0.28571429 147:0.5952381 148:0.5952381 149:0.85714286 150:0.5952381 151:0.64285714 152:0.69047619 153:0.42857143 154:0.45238095 155:0.5952381 156:0.47619048 157:0.61904762 158:0.88095238 159:0.9047619 160:0.54761905 161:0.23809524 162:0.47619048 163:0.52380952 164:0.35714286 165:0.76190476 166:1 167:0.97619048 168:0.61904762 169:0.11904762 170:0.047619048 171:0.047619048 
3.072595030354998 1:0.21212121 2:0.21212121 3:0.21212121 4:0.15151515 5:0.18181818 6:0.21212121 7:0.33333333 8:0.39393939 9:0.39393939 10:0.36363636 11:0.42424242 12:0.45454545 13:0.45454545 14:0.51515152 15:0.48484848 16:0.48484848 17:0.33333333 18:0.39393939 19:0.36363636 20:0.24242424 21:0.21212121 22:0.18181818 23:0.21212121 24:0.15151515 25:0.33333333 26:0.39393939 27:0.39393939 28:0.48484848 29:0.48484848 30:0.51515152 31:0.42424242 32:0.48484848 33:0.45454545 34:0.39393939 35:0.24242424 36:0.21212121 37:0.21212121 38:0.15151515 39:0.12121212 40:0.18181818 41:0.21212121 42:0.15151515 43:0.18181818 44:0.18181818 45:0.12121212 49:0.03030303 50:0.3030303 51:0.33333333 52:0.48484848 53:0.48484848 54:0.36363636 55:0.33333333 56:0.33333333 57:0.33333333 58:0.39393939 59:0.48484848 60:0.45454545 61:0.48484848 62:0.39393939 63:0.39393939 64:0.45454545 65:0.39393939 66:0.39393939 67:0.33333333 68:0.33333333 69:0.33333333 70:0.36363636 71:0.33333333 72:0.3030303 73:0.27272727 74:0.36363636 75:0.42424242 76:0.42424242 77:0.45454545 78:0.48484848 79:0.42424242 80:0.36363636 81:0.36363636 82:0.33333333 83:0.33333333 84:0.33333333 85:0.3030303 86:0.21212121 87:0.21212121 88:0.36363636 89:0.48484848 90:0.57575758 91:0.6969697 92:0.72727273 93:0.66666667 94:0.81818182 95:0.96969697 96:1 97:0.93939394 98:0.87878788 99:0.66666667 100:0.51515152 101:0.42424242 102:0.33333333 103:0.36363636 104:0.51515152 105:0.72727273 106:0.63636364 107:0.75757576 108:0.72727273 109:0.72727273 110:0.75757576 111:0.87878788 112:0.96969697 113:0.93939394 114:0.87878788 115:0.45454545 116:0.33333333 117:0.15151515 118:0.12121212 119:0.03030303 120:0.060606061 121:0.12121212 122:0.18181818 123:0.060606061 124:0.03030303 126:0.060606061 127:0.060606061 128:0.18181818 129:0.21212121 130:0.21212121 131:0.15151515 132:0.060606061 134:0.03030303 137:0.055555556 138:0.26388889 139:0.43055556 140:0.59722222 141:0.69444444 142:0.75 143:0.81944444 144:0.88888889 145:0.88888889 146:0.86111111 147:0.69444444 148:0.40277778 149:0.36111111 150:0.36111111 151:0.44444444 152:0.36111111 153:0.54166667 154:0.69444444 155:0.76388889 156:0.72222222 157:0.81944444 158:0.91666667 159:0.94444444 160:0.86111111 161:0.58333333 162:0.43055556 163:0.33333333 164:0.30555556 165:0.41666667 166:0.61111111 167:0.73611111 168:0.875 169:1 170:0.88888889 171:0.66666667 172:0.70833333 
2.65258310234209 1:0.39130435 2:0.43478261 3:0.43478261 4:0.47826087 5:0.47826087 6:0.47826087 7:0.52173913 8:0.56521739 9:0.65217391 10:0.69565217 11:0.7826087 12:0.86956522 13:0.86956522 14:0.86956522 15:0.82608696 16:0.82608696 17:0.82608696 18:0.7826087 19:0.52173913 20:0.52173913 21:0.52173913 22:0.52173913 23:0.47826087 24:0.39130435 25:0.39130435 26:0.39130435 27:0.47826087 28:0.47826087 29:0.47826087 30:0.52173913 31:0.52173913 32:0.43478261 33:0.39130435 34:0.39130435 35:0.39130435 36:0.39130435 37:0.39130435 38:0.43478261 39:0.43478261 40:0.43478261 41:0.39130435 42:0.43478261 43:0.43478261 44:0.43478261 45:0.43478261 46:0.39130435 47:0.39130435 48:0.43478261 49:0.39130435 50:0.34782609 51:0.30434783 52:0.26086957 53:0.26086957 54:0.30434783 55:0.2173913 56:0.086956522 57:0.043478261 58:0.13043478 59:0.17391304 60:0.13043478 61:0.13043478 65:0.34782609 66:0.47826087 67:0.47826087 68:0.43478261 69:0.34782609 70:0.34782609 71:0.43478261 72:0.52173913 73:0.60869565 74:0.7826087 75:0.65217391 76:0.56521739 77:0.47826087 78:0.43478261 79:0.47826087 80:0.43478261 81:0.43478261 82:0.13043478 83:0.043478261 84:0.086956522 85:0.086956522 86:0.34782609 87:0.52173913 88:0.7826087 89:1 90:1 91:0.91304348 92:0.82608696 93:0.82608696 94:0.65217391 95:0.65217391 96:0.65217391 97:0.69565217 98:0.69565217 99:0.69565217 100:0.60869565 101:0.52173913 102:0.39130435 103:0.39130435 104:0.34782609 105:0.47826087 106:0.52173913 107:0.60869565 108:0.56521739 109:0.56521739 110:0.52173913 111:0.52173913 112:0.56521739 113:0.56521739 114:0.60869565 115:0.52173913 116:0.56521739 117:0.60869565 118:0.60869565 119:0.69565217 120:0.65217391 121:0.60869565 122:0.56521739 123:0.82608696 124:0.91304348 125:0.82608696 126:0.73913043 127:0.56521739 128:0.26086957 130:0.043478261 131:0.043478261 135:0.043478261 136:0.086956522 137:0.5 138:0.48571429 139:0.64285714 140:0.78571429 141:0.94285714 142:0.71428571 143:0.82857143 144:0.91428571 145:1 146:0.9 147:0.68571429 148:0.44285714 149:0.51428571 150:0.55714286 151:0.51428571 152:0.45714286 153:0.47142857 154:0.57142857 155:0.51428571 156:0.52857143 157:0.58571429 158:0.6 159:0.77142857 160:0.95714286 161:0.85714286 162:0.74285714 163:0.84285714 164:0.81428571 165:0.8 166:0.61428571 167:0.25714286 168:0.1 
1.943264954029863 2:0.22857143 3:0.88571429 4:0.88571429 5:0.88571429 6:0.88571429 7:0.88571429 8:0.88571429 9:0.88571429 10:0.68571429 11:0.62857143 12:0.57142857 13:0.54285714 14:0.57142857 15:0.57142857 16:0.57142857 17:0.57142857 18:0.57142857 19:0.57142857 20:0.57142857 21:0.6 22:0.6 23:0.62857143 24:0.71428571 25:1 26:1 27:1 28:1 29:0.97142857 30:0.94285714 31:0.085714286 39:0.14285714 40:0.91428571 41:0.97142857 42:1 43:1 44:1 45:1 46:0.94285714 47:0.62857143 48:0.54285714 49:0.48571429 50:0.45714286 51:0.45714286 52:0.48571429 53:0.45714286 54:0.48571429 55:0.51428571 56:0.48571429 57:0.51428571 58:0.51428571 59:0.51428571 60:0.51428571 61:0.51428571 62:0.42857143 63:0.34285714 64:0.22857143 65:0.22857143 66:0.2 67:0.11428571 73:0.14285714 74:0.25714286 75:0.4 76:0.45714286 77:0.45714286 78:0.57142857 79:0.6 80:0.54285714 81:0.54285714 82:0.51428571 83:0.51428571 84:0.54285714 85:0.54285714 86:0.54285714 87:0.54285714 88:0.54285714 89:0.54285714 90:0.51428571 91:0.54285714 92:0.57142857 93:0.62857143 94:0.74285714 95:1 96:1 97:1 98:1 99:1 100:0.97142857 101:0.94285714 102:0.057142857 110:0.94285714 111:1 112:1 113:1 114:1 115:1 116:1 117:0.71428571 118:0.65714286 119:0.6 120:0.57142857 121:0.57142857 122:0.57142857 123:0.57142857 124:0.57142857 125:0.57142857 126:0.57142857 127:0.57142857 128:0.57142857 129:0.57142857 130:0.57142857 131:0.57142857 132:0.57142857 133:0.6 134:0.54285714 135:0.22857143 136:0.057142857 137:0.33018868 138:0.8490566 139:0.94339623 140:1 141:0.99056604 142:0.98113208 143:0.98113208 144:0.98113208 145:0.96226415 146:0.52830189 147:0.33018868 148:0.28301887 149:0.26415094 150:0.31132075 151:0.33018868 152:0.32075472 153:0.32075472 154:0.32075472 155:0.32075472 156:0.35849057 157:0.66037736 158:0.67924528 159:0.71698113 160:0.74528302 161:0.97169811 162:0.97169811 163:0.97169811 164:0.98113208 165:0.98113208 166:0.97169811 167:0.74528302 168:0.72641509 169:0.72641509 170:0.70754717 171:0.66981132 172:0.33018868 
1.631778597652975 2:0.15384615 3:0.26923077 4:0.30769231 5:0.30769231 6:0.34615385 7:0.42307692 8:0.5 9:0.57692308 10:0.53846154 11:0.15384615 12:0.076923077 13:0.076923077 14:0.076923077 15:0.038461538 16:0.15384615 17:0.26923077 18:0.34615385 19:0.42307692 20:0.46153846 21:0.5 22:0.5 23:0.46153846 24:0.46153846 25:0.42307692 26:0.46153846 27:0.46153846 28:0.42307692 29:0.42307692 30:0.42307692 31:0.38461538 32:0.34615385 33:0.23076923 34:0.23076923 35:0.19230769 36:0.15384615 37:0.15384615 38:0.15384615 39:0.11538462 40:0.11538462 41:0.11538462 42:0.15384615 43:0.23076923 44:0.30769231 45:0.26923077 46:0.34615385 47:0.30769231 48:0.42307692 49:0.42307692 50:0.46153846 51:0.42307692 52:0.26923077 53:0.076923077 54:0.076923077 55:0.15384615 56:0.19230769 57:0.34615385 58:0.5 59:0.61538462 60:0.61538462 61:0.80769231 62:0.88461538 63:1 64:0.96153846 65:1 66:1 67:0.92307692 68:0.92307692 69:0.73076923 70:0.53846154 71:0.11538462 76:0.038461538 77:0.11538462 78:0.19230769 79:0.19230769 80:0.11538462 82:0.038461538 83:0.11538462 84:0.11538462 85:0.11538462 86:0.11538462 87:0.076923077 102:0.038461538 103:0.038461538 104:0.076923077 105:0.30769231 106:0.5 107:0.61538462 108:0.65384615 109:0.88461538 110:0.88461538 111:0.76923077 112:0.73076923 113:0.61538462 114:0.57692308 115:0.46153846 116:0.5 117:0.5 118:0.30769231 119:0.076923077 120:0.19230769 121:0.19230769 122:0.26923077 123:0.15384615 124:0.038461538 125:0.11538462 126:0.19230769 127:0.19230769 128:0.23076923 129:0.19230769 130:0.19230769 131:0.23076923 132:0.23076923 133:0.19230769 134:0.15384615 135:0.076923077 136:0.076923077 137:0.55319149 138:0.61702128 139:0.61702128 140:0.53191489 141:0.44680851 142:0.57446809 143:0.55319149 144:0.57446809 145:0.46808511 146:0.38297872 147:0.53191489 148:0.46808511 149:0.4893617 150:0.53191489 151:0.61702128 152:0.59574468 153:0.59574468 154:0.61702128 155:0.78723404 156:0.93617021 157:0.91489362 158:0.93617021 159:0.89361702 160:1 161:0.95744681 162:0.87234043 163:0.85106383 164:0.80851064 165:0.61702128 166:0.5106383 167:0.31914894 168:0.29787234 169:0.38297872 170:0.65957447 171:0.53191489 172:0.085106383 
0.105678395084691 9:0.090909091 10:0.045454545 19:0.31818182 20:0.40909091 21:0.31818182 22:0.27272727 23:0.18181818 24:0.22727273 25:0.36363636 26:0.45454545 27:0.31818182 28:0.31818182 29:0.27272727 30:0.13636364 31:0.18181818 32:0.22727273 33:0.18181818 34:0.090909091 35:0.045454545 36:0.13636364 37:0.27272727 38:0.090909091 39:0.13636364 40:0.13636364 41:0.36363636 42:0.22727273 43:0.13636364 44:0.22727273 45:0.27272727 46:0.22727273 47:0.18181818 48:0.18181818 55:0.13636364 56:0.090909091 57:0.18181818 58:0.45454545 59:0.40909091 60:0.54545455 61:0.54545455 62:0.54545455 63:0.5 64:0.36363636 65:0.22727273 66:0.18181818 67:0.045454545 69:0.090909091 70:0.090909091 71:0.13636364 72:0.13636364 73:0.045454545 76:0.13636364 77:0.27272727 78:0.31818182 79:0.31818182 80:0.36363636 81:0.27272727 82:0.27272727 83:0.22727273 84:0.22727273 85:0.18181818 86:0.090909091 88:0.22727273 89:0.27272727 90:0.27272727 91:0.13636364 96:0.13636364 97:0.13636364 98:0.18181818 99:0.27272727 100:0.27272727 101:0.27272727 102:0.22727273 103:0.22727273 106:0.090909091 107:0.5 108:0.45454545 109:0.40909091 110:0.45454545 111:0.63636364 112:0.77272727 113:0.90909091 114:1 115:0.90909091 116:0.90909091 117:0.59090909 118:0.5 119:0.36363636 120:0.40909091 121:0.31818182 122:0.31818182 123:0.090909091 127:0.045454545 128:0.045454545 129:0.045454545 130:0.045454545 131:0.18181818 132:0.13636364 138:0.15 139:0.2 140:0.3 141:0.425 142:0.425 143:0.35 144:0.45 145:0.8 146:0.75 147:0.6 148:0.9 149:1 150:0.95 151:0.75 152:0.475 153:0.425 154:0.5 155:0.5 156:0.6 157:0.575 158:0.65 159:0.75 160:0.65 161:0.475 162:0.225 163:0.175 164:0.075 165:0.1 166:0.15 167:0.05 168:0.1 169:0.15 170:0.125 171:0.175 
0.6047250801168671 2:0.027777778 3:0.027777778 4:0.027777778 5:0.11111111 6:0.16666667 7:0.13888889 8:0.16666667 9:0.22222222 10:0.33333333 11:0.41666667 12:0.44444444 13:0.47222222 14:0.55555556 15:0.69444444 16:0.75 17:0.86111111 18:0.91666667 19:0.91666667 20:0.91666667 21:0.91666667 22:0.91666667 23:0.91666667 24:0.88888889 25:0.88888889 26:0.88888889 27:0.91666667 28:0.88888889 29:0.88888889 30:0.88888889 31:0.88888889 32:0.88888889 33:0.88888889 34:0.88888889 35:0.91666667 36:0.91666667 37:0.91666667 38:0.91666667 39:0.86111111 40:0.83333333 41:0.83333333 42:0.86111111 43:0.86111111 44:0.86111111 45:0.88888889 46:0.88888889 47:0.94444444 48:0.94444444 49:0.94444444 50:0.94444444 51:1 52:0.97222222 53:0.88888889 54:0.86111111 55:0.83333333 56:0.83333333 57:0.83333333 58:0.86111111 59:0.86111111 60:0.86111111 61:0.83333333 62:0.80555556 63:0.80555556 64:0.77777778 65:0.77777778 66:0.77777778 67:0.75 68:0.75 69:0.75 70:0.69444444 71:0.63888889 72:0.66666667 73:0.58333333 74:0.55555556 75:0.52777778 76:0.55555556 77:0.61111111 78:0.61111111 79:0.63888889 80:0.69444444 81:0.72222222 82:0.69444444 83:0.66666667 84:0.66666667 85:0.66666667 86:0.69444444 87:0.69444444 88:0.55555556 89:0.52777778 90:0.52777778 91:0.55555556 92:0.58333333 93:0.63888889 94:0.61111111 95:0.63888889 96:0.63888889 97:0.63888889 98:0.63888889 99:0.61111111 100:0.61111111 101:0.63888889 102:0.55555556 103:0.52777778 104:0.55555556 105:0.58333333 106:0.61111111 107:0.61111111 108:0.61111111 109:0.58333333 110:0.52777778 111:0.44444444 112:0.36111111 113:0.44444444 114:0.44444444 115:0.44444444 116:0.44444444 117:0.38888889 118:0.30555556 119:0.30555556 120:0.36111111 121:0.44444444 122:0.38888889 123:0.33333333 124:0.27777778 125:0.47222222 126:0.52777778 127:0.38888889 128:0.33333333 129:0.33333333 130:0.30555556 131:0.27777778 132:0.19444444 137:0.058823529 138:0.17647059 139:0.33613445 140:0.52941176 141:0.60504202 142:0.85714286 143:0.94117647 144:0.96638655 145:0.96638655 146:0.92436975 147:0.90756303 148:0.91596639 149:0.86554622 150:0.87394958 151:0.92436975 152:0.92436975 153:0.92436975 154:0.85714286 155:0.87394958 156:0.93277311 157:1 158:0.94117647 159:0.94117647 160:0.88235294 161:0.88235294 162:0.80672269 163:0.67226891 164:0.6302521 165:0.60504202 166:0.52941176 167:0.47058824 168:0.44537815 169:0.41176471 170:0.41176471 171:0.37815126 172:0.12605042 
0.9071613091777778 6:0.05 22:0.3 23:0.35 24:0.4 25:0.6 26:0.4 27:0.1 41:0.05 42:0.1 43:0.15 44:0.25 45:0.2 46:0.2 47:0.15 53:0.2 54:0.25 55:0.1 56:0.2 57:0.3 58:0.4 59:0.4 60:0.35 61:0.45 62:0.35 63:0.4 64:0.25 65:0.15 66:0.05 68:0.1 69:0.4 70:0.45 71:0.25 72:0.15 73:0.4 74:0.55 75:0.55 76:0.35 77:0.35 78:0.2 79:0.25 80:0.4 81:0.45 82:0.55 83:0.35 84:0.15 87:0.1 88:0.05 89:0.25 90:0.35 91:0.25 92:0.2 93:0.05 96:0.05 97:0.25 98:0.35 99:0.35 100:0.3 101:0.2 102:0.15 104:0.25 105:0.25 106:0.5 107:0.45 108:0.45 109:0.85 110:0.6 111:0.6 112:0.6 113:1 114:1 115:0.8 116:0.6 117:0.55 118:0.55 119:0.4 120:0.3 121:0.35 122:0.3 123:0.1 138:0.046511628 139:0.046511628 140:0.069767442 141:0.093023256 142:0.13953488 143:0.11627907 144:0.20930233 145:0.41860465 146:0.48837209 147:0.53488372 148:0.51162791 149:0.62790698 150:0.88372093 151:1 152:1 153:0.69767442 154:0.46511628 155:0.39534884 156:0.39534884 157:0.46511628 158:0.53488372 159:0.48837209 160:0.46511628 161:0.46511628 162:0.41860465 163:0.41860465 164:0.30232558 165:0.18604651 166:0.11627907 167:0.046511628 168:0.069767442 169:0.046511628 170:0.069767442 171:0.069767442 
0.5273370446890501 7:0.035714286 8:0.17857143 9:0.32142857 10:0.5 11:0.60714286 12:0.67857143 13:0.89285714 14:0.92857143 15:0.96428571 16:1 17:0.85714286 18:0.64285714 19:0.28571429 20:0.17857143 21:0.32142857 22:0.42857143 23:0.35714286 24:0.39285714 25:0.21428571 26:0.10714286 27:0.10714286 32:0.035714286 33:0.035714286 37:0.071428571 38:0.14285714 39:0.14285714 40:0.071428571 47:0.035714286 48:0.25 49:0.28571429 50:0.39285714 51:0.21428571 52:0.21428571 53:0.28571429 54:0.5 55:0.53571429 56:0.5 57:0.42857143 58:0.32142857 59:0.32142857 60:0.32142857 61:0.28571429 62:0.25 63:0.17857143 68:0.35714286 69:0.39285714 70:0.5 71:0.53571429 72:0.5 73:0.46428571 74:0.46428571 75:0.53571429 76:0.5 77:0.35714286 78:0.14285714 79:0.035714286 86:0.035714286 87:0.071428571 88:0.071428571 89:0.071428571 92:0.10714286 93:0.17857143 94:0.21428571 95:0.28571429 96:0.32142857 97:0.32142857 98:0.10714286 107:0.035714286 108:0.10714286 109:0.10714286 110:0.10714286 111:0.14285714 112:0.17857143 113:0.17857143 114:0.17857143 115:0.071428571 138:0.23684211 139:0.63157895 140:0.81578947 141:0.63157895 142:0.68421053 143:0.55263158 144:0.84210526 145:0.89473684 146:0.81578947 147:0.86842105 148:1 149:0.92105263 150:0.81578947 151:0.76315789 152:0.84210526 153:0.71052632 154:0.68421053 155:0.57894737 156:0.5 157:0.52631579 158:0.55263158 159:0.57894737 160:0.60526316 161:0.5 162:0.34210526 163:0.15789474 167:0.026315789 168:0.052631579 169:0.078947368 170:0.078947368 171:0.026315789 
3.836416679471012 11:0.29411765 12:0.29411765 13:0.41176471 14:0.52941176 15:0.58823529 16:0.76470588 17:0.70588235 18:0.52941176 19:0.58823529 20:0.41176471 21:0.58823529 22:0.64705882 23:0.82352941 24:0.82352941 25:0.52941176 26:0.41176471 27:0.52941176 28:0.58823529 29:0.70588235 30:0.76470588 31:0.58823529 32:0.41176471 33:0.47058824 34:0.47058824 35:0.41176471 36:0.41176471 37:0.58823529 38:0.41176471 39:0.35294118 40:0.35294118 41:0.29411765 42:0.70588235 43:0.58823529 44:0.70588235 45:0.47058824 46:0.52941176 47:0.47058824 48:0.41176471 49:0.11764706 54:0.17647059 55:0.23529412 56:0.58823529 57:0.76470588 58:1 59:1 60:0.64705882 61:0.70588235 62:0.64705882 63:0.82352941 64:0.88235294 65:0.70588235 66:0.82352941 67:0.70588235 68:0.64705882 69:0.41176471 70:0.17647059 71:0.23529412 72:0.41176471 73:0.29411765 74:0.29411765 75:0.17647059 76:0.17647059 77:0.11764706 79:0.35294118 80:0.52941176 81:0.35294118 82:0.35294118 83:0.29411765 84:0.17647059 86:0.17647059 87:0.23529412 88:0.17647059 89:0.11764706 90:0.17647059 91:0.23529412 92:0.23529412 93:0.17647059 94:0.11764706 95:0.11764706 96:0.11764706 97:0.17647059 98:0.35294118 99:0.64705882 100:0.88235294 101:0.88235294 102:0.82352941 103:0.88235294 104:1 105:1 106:0.58823529 107:0.41176471 108:0.11764706 109:0.11764706 110:0.11764706 111:0.11764706 112:0.11764706 115:0.11764706 116:0.35294118 117:0.58823529 118:0.35294118 119:0.23529412 120:0.23529412 121:0.23529412 122:0.23529412 123:0.11764706 124:0.23529412 125:0.23529412 126:0.11764706 139:0.058823529 140:0.019607843 141:0.15686275 142:0.58823529 143:0.94117647 144:0.56862745 145:0.33333333 146:0.31372549 147:0.62745098 148:0.7254902 149:0.96078431 150:1 151:0.60784314 152:0.56862745 153:0.47058824 154:0.62745098 155:0.62745098 156:0.64705882 157:0.62745098 158:0.43137255 159:0.33333333 160:0.45098039 161:0.39215686 162:0.37254902 163:0.21568627 164:0.35294118 165:0.45098039 166:0.62745098 167:0.52941176 168:0.47058824 169:0.11764706 170:0.25490196 171:0.47058824 172:0.11764706 
1.360624141039781 27:0.23076923 28:0.38461538 29:0.46153846 30:0.53846154 31:0.69230769 32:0.92307692 33:0.46153846 34:0.53846154 35:0.61538462 36:0.53846154 37:0.53846154 38:0.46153846 39:0.30769231 40:0.46153846 41:0.61538462 42:0.46153846 43:0.30769231 44:0.15384615 45:0.30769231 46:0.23076923 47:0.30769231 48:0.15384615 57:0.15384615 58:0.30769231 59:0.23076923 60:0.23076923 61:0.30769231 62:0.076923077 64:0.076923077 65:0.076923077 75:0.15384615 76:0.38461538 77:0.30769231 78:0.30769231 79:0.38461538 80:0.61538462 81:1 82:1 83:0.84615385 84:0.15384615 87:0.076923077 94:0.076923077 95:0.30769231 96:0.38461538 97:0.53846154 98:0.53846154 99:0.46153846 100:0.61538462 101:0.61538462 102:0.38461538 103:0.23076923 104:0.23076923 105:0.46153846 106:0.61538462 107:0.69230769 108:0.84615385 109:0.69230769 110:0.61538462 111:0.46153846 112:0.15384615 113:0.15384615 114:0.15384615 115:0.076923077 120:0.46153846 121:0.76923077 122:0.92307692 123:0.84615385 124:0.84615385 125:0.76923077 126:0.69230769 127:0.53846154 128:0.53846154 129:0.53846154 130:0.69230769 131:0.61538462 132:0.53846154 133:0.38461538 134:0.23076923 137:0.037037037 138:0.37037037 139:0.40740741 140:0.33333333 141:0.25925926 142:0.2962963 143:0.48148148 144:0.59259259 145:0.66666667 146:0.85185185 147:0.7037037 148:0.77777778 149:0.85185185 150:0.74074074 151:0.40740741 152:0.18518519 153:0.2962963 154:0.40740741 155:0.59259259 156:1 157:0.81481481 158:0.88888889 159:0.88888889 160:0.81481481 161:0.77777778 162:0.62962963 163:0.37037037 164:0.14814815 165:0.14814815 166:0.22222222 168:0.074074074 169:0.25925926 170:0.2962963 171:0.22222222 172:0.074074074 
2.393016305250846 7:0.043478261 8:0.043478261 10:0.13043478 11:0.17391304 12:0.2173913 13:0.52173913 14:0.86956522 15:1 16:1 17:0.95652174 18:0.82608696 19:0.47826087 20:0.47826087 21:0.47826087 22:0.52173913 23:0.56521739 24:0.56521739 25:0.60869565 26:0.60869565 27:0.60869565 28:0.56521739 29:0.39130435 30:0.17391304 33:0.13043478 34:0.17391304 35:0.17391304 36:0.17391304 37:0.13043478 38:0.043478261 67:0.086956522 68:0.17391304 69:0.17391304 70:0.17391304 71:0.26086957 72:0.2173913 73:0.34782609 74:0.47826087 75:0.7826087 76:0.73913043 77:0.69565217 78:0.69565217 79:0.60869565 80:0.47826087 81:0.39130435 82:0.34782609 83:0.39130435 84:0.43478261 85:0.39130435 86:0.30434783 87:0.043478261 105:0.043478261 106:0.17391304 107:0.2173913 108:0.2173913 109:0.26086957 110:0.30434783 111:0.26086957 112:0.26086957 113:0.30434783 114:0.34782609 115:0.30434783 116:0.30434783 117:0.26086957 118:0.26086957 119:0.17391304 122:0.13043478 123:0.2173913 124:0.2173913 125:0.2173913 126:0.2173913 127:0.17391304 138:0.090909091 139:0.15151515 140:0.18181818 141:0.24242424 142:0.21212121 143:0.3030303 144:0.33333333 145:0.36363636 146:0.45454545 147:0.48484848 148:0.51515152 149:0.54545455 150:0.63636364 151:0.54545455 152:0.54545455 153:0.63636364 154:0.72727273 155:0.6969697 156:0.72727273 157:0.90909091 158:0.90909091 159:1 160:0.93939394 161:0.87878788 162:0.90909091 163:0.96969697 164:0.87878788 165:0.60606061 166:0.48484848 167:0.48484848 168:0.39393939 169:0.15151515 170:0.03030303 
3.732454030443818 1:0.125 7:0.125 8:0.15625 9:0.40625 10:0.625 11:0.71875 12:0.78125 13:0.90625 14:0.96875 15:0.90625 16:0.65625 17:0.5625 18:0.5 19:0.40625 20:0.0625 21:0.1875 22:0.5 23:0.59375 24:0.5625 25:0.65625 26:0.65625 27:0.75 28:0.8125 29:0.84375 30:0.8125 31:0.84375 32:0.78125 33:0.8125 34:0.78125 35:0.71875 36:0.75 37:0.75 38:0.75 39:0.71875 40:0.6875 41:0.6875 42:0.65625 43:0.625 44:0.625 45:0.59375 46:0.5625 47:0.28125 52:0.125 53:0.9375 54:0.90625 55:0.90625 56:0.90625 57:0.9375 58:0.9375 59:0.71875 60:0.625 61:0.71875 62:0.71875 63:0.71875 64:0.71875 65:0.6875 66:0.6875 67:0.6875 68:0.6875 69:0.84375 70:0.84375 71:0.84375 72:0.84375 73:0.90625 74:0.9375 75:0.75 76:0.75 77:0.75 78:0.75 79:0.75 80:0.75 81:0.75 82:0.75 83:0.71875 84:0.875 85:0.875 86:0.875 87:0.875 88:0.875 89:0.84375 90:0.8125 91:0.125 96:0.875 97:0.96875 98:0.96875 99:0.96875 100:0.96875 101:0.96875 102:0.96875 103:0.59375 104:0.40625 105:0.40625 106:0.4375 107:0.4375 108:0.75 109:0.84375 110:0.90625 111:0.90625 112:0.875 113:0.90625 114:0.90625 115:0.59375 116:0.59375 117:0.59375 118:0.5 119:0.53125 120:0.71875 121:0.71875 122:0.625 123:0.625 124:0.625 125:0.6875 126:0.6875 127:0.53125 128:0.53125 129:0.96875 130:0.96875 131:0.96875 132:0.96875 133:1 134:0.96875 135:0.90625 137:0.070175439 138:0.26315789 139:0.92105263 140:0.94736842 141:0.96491228 142:0.69298246 143:0.68421053 144:0.60526316 145:0.61403509 146:0.70175439 147:0.70175439 148:0.55263158 149:0.9122807 150:0.89473684 151:0.55263158 152:0.48245614 153:0.43859649 154:0.99122807 155:1 156:0.99122807 157:0.81578947 158:0.34210526 159:0.48245614 160:0.59649123 161:0.73684211 162:0.71929825 163:0.51754386 164:0.71929825 165:0.72807018 166:0.73684211 167:0.73684211 168:0.65789474 169:0.87719298 170:0.85964912 171:0.76315789 172:0.14912281 
0.9223389367554644 3:0.15 4:0.25 5:0.25 6:0.25 7:0.25 8:0.2 9:0.1 10:0.05 11:0.15 12:0.2 13:0.1 14:0.1 15:0.1 16:0.2 17:0.2 18:0.15 19:0.15 20:0.1 22:0.1 23:0.1 24:0.1 25:0.3 26:0.3 27:0.35 28:0.45 29:0.65 30:0.75 31:0.8 32:1 33:0.95 34:0.95 35:0.8 36:0.8 37:0.55 38:0.5 39:0.5 40:0.6 41:0.3 42:0.3 43:0.25 44:0.3 45:0.2 46:0.05 47:0.15 48:0.15 49:0.2 50:0.35 51:0.3 52:0.35 53:0.25 54:0.05 56:0.15 57:0.2 58:0.15 59:0.15 60:0.2 61:0.35 62:0.45 63:0.55 64:0.5 65:0.45 66:0.45 67:0.5 68:0.5 69:0.65 70:0.65 71:0.55 72:0.35 73:0.3 74:0.25 75:0.2 76:0.15 77:0.2 78:0.2 79:0.2 80:0.35 81:0.65 82:0.65 83:0.55 84:0.45 85:0.3 86:0.25 87:0.2 88:0.15 89:0.15 90:0.1 91:0.15 92:0.25 93:0.3 94:0.35 95:0.35 96:0.25 97:0.3 98:0.3 99:0.25 100:0.35 101:0.4 102:0.45 103:0.55 104:0.55 105:0.45 106:0.4 107:0.35 108:0.25 109:0.35 110:0.45 111:0.45 112:0.6 113:0.8 114:1 115:1 116:0.65 117:0.4 118:0.3 119:0.2 120:0.15 121:0.1 122:0.05 123:0.15 124:0.15 125:0.2 126:0.15 127:0.1 128:0.1 129:0.1 132:0.05 133:0.15 134:0.15 138:0.41666667 139:0.41666667 140:0.3125 141:0.1875 142:0.3125 143:0.29166667 144:0.4375 145:0.47916667 146:0.58333333 147:0.72916667 148:0.75 149:1 150:0.95833333 151:0.89583333 152:0.75 153:0.58333333 154:0.64583333 155:0.58333333 156:0.52083333 157:0.35416667 158:0.54166667 159:0.8125 160:0.8125 161:0.75 162:0.75 163:0.5 164:0.14583333 165:0.083333333 166:0.25 167:0.41666667 168:0.47916667 169:0.20833333 170:0.5 171:0.39583333 
1.866771273721413 1:0.58823529 2:0.64705882 3:0.67647059 4:0.67647059 5:0.64705882 6:0.61764706 7:0.58823529 8:0.5 9:0.26470588 17:0.55882353 18:0.79411765 19:0.82352941 20:0.85294118 21:0.91176471 22:0.97058824 23:1 24:0.94117647 25:0.52941176 26:0.17647059 27:0.11764706 28:0.088235294 29:0.058823529 30:0.029411765 31:0.029411765 39:0.029411765 40:0.088235294 41:0.14705882 42:0.14705882 43:0.91176471 44:0.82352941 45:0.82352941 46:0.79411765 47:0.76470588 48:0.76470588 49:0.79411765 50:0.73529412 51:0.47058824 59:0.23529412 60:0.38235294 61:0.44117647 62:0.44117647 63:0.44117647 64:0.44117647 65:0.44117647 66:0.41176471 67:0.38235294 68:0.41176471 69:0.44117647 70:0.41176471 71:0.44117647 72:0.47058824 73:0.44117647 74:0.47058824 75:0.52941176 76:0.5 77:0.5 78:0.52941176 79:0.47058824 80:0.47058824 81:0.5 82:0.5 83:0.52941176 84:0.5 85:0.61764706 86:0.61764706 87:0.58823529 88:0.52941176 89:0.52941176 90:0.5 91:0.47058824 92:0.38235294 93:0.29411765 94:0.17647059 101:0.088235294 102:0.79411765 103:0.88235294 104:0.88235294 105:0.85294118 106:0.82352941 107:0.82352941 108:0.82352941 109:0.82352941 110:0.088235294 111:0.058823529 112:0.058823529 113:0.058823529 114:0.029411765 115:0.029411765 116:0.029411765 117:0.029411765 118:0.029411765 119:0.029411765 120:0.029411765 121:0.029411765 122:0.058823529 123:0.058823529 124:0.058823529 125:0.11764706 126:0.11764706 127:0.97058824 128:0.94117647 129:0.85294118 130:0.82352941 131:0.82352941 132:0.82352941 133:0.79411765 134:0.76470588 135:0.23529412 137:0.425 138:0.8875 139:0.9625 140:1 141:0.9875 142:0.9875 143:0.975 144:0.975 145:0.95 146:0.5375 147:0.5375 148:0.525 149:0.5375 150:0.5625 151:0.575 152:0.6 153:0.6125 154:0.6125 155:0.6 156:0.5875 157:0.6 158:0.575 159:0.6125 160:0.6 161:0.625 162:0.625 163:0.65 164:0.575 165:0.4875 166:0.3375 167:0.325 168:0.325 169:0.2375 170:0.2625 171:0.275 172:0.3625 
2.12421157474623 3:0.3125 4:0.5625 5:0.5625 6:0.4375 7:0.5 8:0.5 9:0.375 10:0.4375 11:0.5625 12:0.6875 13:0.5625 14:0.5625 15:0.375 16:0.4375 17:0.5 18:0.5 19:0.5 20:0.5625 21:0.5625 22:0.5625 23:0.5625 24:0.5625 25:0.5 26:0.5625 27:0.4375 28:0.375 29:0.375 30:0.3125 31:0.25 32:0.1875 33:0.3125 34:0.375 35:0.3125 36:0.1875 38:0.0625 39:0.0625 47:0.125 48:0.25 49:0.25 50:0.3125 51:0.3125 52:0.5625 53:0.75 54:1 55:0.9375 56:0.9375 57:1 58:1 59:0.8125 60:0.5 61:0.3125 62:0.125 63:0.1875 64:0.125 68:0.0625 69:0.125 70:0.1875 71:0.125 72:0.125 73:0.0625 74:0.125 75:0.0625 76:0.0625 77:0.1875 78:0.25 79:0.5 80:0.5 81:0.625 82:0.5625 83:0.3125 84:0.3125 85:0.25 86:0.25 87:0.375 88:0.4375 89:0.5625 90:0.625 91:0.625 92:0.625 93:0.625 94:0.625 95:0.6875 96:0.6875 97:0.5625 98:0.4375 99:0.4375 100:0.4375 101:0.4375 102:0.4375 103:0.4375 104:0.25 105:0.375 106:0.375 107:0.5 108:0.4375 109:0.5 110:0.5625 111:0.5625 112:0.5 113:0.5 114:0.4375 115:0.5625 116:0.5625 117:0.5 118:0.4375 119:0.5 120:0.5 121:0.375 122:0.4375 123:0.5 124:0.375 125:0.375 126:0.375 127:0.375 128:0.375 129:0.375 130:0.375 131:0.25 132:0.3125 133:0.25 134:0.25 135:0.1875 136:0.1875 137:0.61702128 138:0.78723404 139:0.76595745 140:0.93617021 141:1 142:0.78723404 143:0.4893617 144:0.59574468 145:0.65957447 146:0.70212766 147:0.5106383 148:0.25531915 149:0.23404255 150:0.23404255 151:0.34042553 152:0.42553191 153:0.38297872 154:0.34042553 155:0.25531915 156:0.25531915 157:0.19148936 158:0.19148936 159:0.19148936 160:0.14893617 161:0.27659574 162:0.44680851 163:0.53191489 164:0.4893617 165:0.74468085 166:0.40425532 167:0.4893617 168:0.72340426 169:0.87234043 170:0.87234043 171:0.59574468 172:0.021276596 
0.4637039903648976 1:0.53333333 2:0.53333333 3:0.53333333 4:0.53333333 5:0.53333333 6:0.53333333 7:0.56666667 8:0.5 9:0.5 10:0.5 11:0.5 12:0.46666667 13:0.53333333 14:0.5 15:0.5 16:0.46666667 17:0.46666667 18:0.5 19:0.43333333 20:0.4 21:0.43333333 22:0.43333333 23:0.46666667 24:0.46666667 25:0.5 26:0.5 27:0.56666667 28:0.6 29:0.6 30:0.63333333 31:0.66666667 32:0.66666667 33:0.7 34:0.76666667 35:0.83333333 36:0.9 37:0.93333333 38:0.96666667 39:0.96666667 40:1 41:0.96666667 42:0.96666667 43:0.96666667 44:1 45:0.96666667 46:0.76666667 47:0.6 48:0.5 49:0.43333333 50:0.46666667 51:0.36666667 52:0.26666667 53:0.23333333 54:0.2 55:0.16666667 56:0.66666667 57:0.8 58:0.8 59:0.76666667 60:0.46666667 61:0.46666667 62:0.46666667 63:0.23333333 64:0.26666667 65:0.5 66:0.46666667 67:0.43333333 68:0.3 70:0.1 71:0.2 72:0.23333333 73:0.23333333 74:0.1 76:0.3 77:0.3 78:0.3 79:0.3 80:0.16666667 81:0.2 82:0.23333333 83:0.23333333 84:0.13333333 86:0.1 87:0.4 88:0.43333333 89:0.43333333 90:0.1 91:0.066666667 92:0.1 93:0.16666667 94:0.2 95:0.26666667 96:0.63333333 97:0.63333333 98:0.6 99:0.5 100:0.2 101:0.16666667 102:0.066666667 103:0.066666667 104:0.23333333 105:0.33333333 106:0.33333333 107:0.3 108:0.033333333 110:0.066666667 111:0.1 112:0.2 113:0.36666667 114:0.7 115:0.73333333 116:0.73333333 117:0.7 118:0.66666667 119:0.63333333 120:0.5 121:0.46666667 122:0.43333333 123:0.36666667 124:0.4 125:0.36666667 126:0.3 127:0.23333333 128:0.23333333 129:0.13333333 130:0.13333333 131:0.13333333 132:0.13333333 133:0.1 134:0.1 135:0.13333333 136:0.2 137:0.83333333 138:0.78205128 139:0.75641026 140:0.78205128 141:0.75641026 142:0.74358974 143:0.74358974 144:0.76923077 145:0.78205128 146:0.84615385 147:1 148:0.94871795 149:0.76923077 150:0.75641026 151:0.74358974 152:0.71794872 153:0.66666667 154:0.56410256 155:0.52564103 156:0.47435897 157:0.5 158:0.5 159:0.56410256 160:0.5 161:0.41025641 162:0.55128205 163:0.73076923 164:0.83333333 165:0.71794872 166:0.65384615 167:0.48717949 168:0.30769231 169:0.21794872 170:0.14102564 171:0.076923077 172:0.076923077 
0.2533652002346095 1:0.97142857 2:0.97142857 3:0.77142857 4:0.74285714 5:0.8 6:0.77142857 7:0.62857143 8:0.57142857 9:0.54285714 10:0.48571429 11:0.51428571 12:0.54285714 13:0.37142857 14:0.37142857 15:0.34285714 16:0.31428571 17:0.31428571 18:0.34285714 19:0.4 20:0.4 21:0.22857143 22:0.22857143 23:0.2 24:0.2 25:0.22857143 26:0.22857143 27:0.31428571 28:0.4 29:0.2 30:0.17142857 31:0.2 32:0.2 33:0.2 34:0.28571429 35:0.31428571 36:0.34285714 37:0.17142857 38:0.17142857 39:0.17142857 40:0.17142857 41:0.17142857 42:0.2 43:0.31428571 44:0.25714286 45:0.14285714 46:0.14285714 47:0.14285714 48:0.14285714 49:0.14285714 50:0.17142857 51:0.31428571 52:0.22857143 53:0.14285714 54:0.14285714 55:0.14285714 56:0.14285714 57:0.14285714 58:0.17142857 59:0.31428571 60:0.28571429 61:0.14285714 62:0.14285714 63:0.14285714 64:0.14285714 65:0.14285714 66:0.2 67:0.25714286 68:0.2 69:0.14285714 70:0.14285714 71:0.14285714 72:0.14285714 73:0.14285714 74:0.2 75:0.25714286 76:0.25714286 77:0.14285714 78:0.14285714 79:0.14285714 80:0.14285714 81:0.14285714 82:0.17142857 83:0.25714286 84:0.2 85:0.14285714 86:0.14285714 87:0.14285714 88:0.14285714 89:0.14285714 90:0.17142857 91:0.25714286 92:0.17142857 93:0.14285714 94:0.14285714 95:0.14285714 96:0.14285714 97:0.14285714 98:0.17142857 99:0.28571429 100:0.17142857 101:0.14285714 102:0.17142857 103:0.14285714 104:0.2 105:0.17142857 106:0.25714286 107:0.31428571 108:0.2 109:0.17142857 110:0.34285714 111:0.68571429 112:0.97142857 113:0.97142857 114:0.97142857 115:0.97142857 116:0.97142857 117:1 118:0.4 119:0.2 120:0.14285714 121:0.14285714 122:0.14285714 123:0.11428571 124:0.17142857 125:0.14285714 126:0.17142857 127:0.17142857 128:0.14285714 129:0.14285714 130:0.14285714 131:0.14285714 132:0.14285714 133:0.14285714 134:0.14285714 135:0.14285714 136:0.14285714 137:1 138:0.98529412 139:0.98529412 140:0.97794118 141:0.72058824 142:0.014705882 143:0.088235294 144:0.19117647 145:0.19852941 146:0.22794118 147:0.25 148:0.25735294 149:0.19117647 150:0.15441176 151:0.11029412 152:0.10294118 153:0.088235294 154:0.095588235 155:0.088235294 156:0.095588235 157:0.095588235 158:0.10294118 159:0.11029412 160:0.11764706 161:0.11764706 162:0.125 163:0.13235294 164:0.13970588 165:0.16176471 166:0.17647059 167:0.19117647 168:0.20588235 169:0.22794118 170:0.25735294 171:0.34558824 172:0.5 
2.491505145913619 1:0.21052632 2:0.26315789 3:0.31578947 4:0.42105263 5:0.47368421 6:0.42105263 7:0.31578947 8:0.26315789 9:0.31578947 10:0.47368421 11:0.78947368 12:0.84210526 13:0.94736842 14:1 15:0.73684211 16:0.26315789 17:0.10526316 19:0.10526316 20:0.21052632 21:0.47368421 22:0.52631579 23:0.36842105 24:0.26315789 25:0.21052632 26:0.21052632 27:0.15789474 28:0.15789474 29:0.26315789 30:0.26315789 31:0.21052632 32:0.10526316 46:0.15789474 47:0.31578947 48:0.47368421 49:0.63157895 50:0.78947368 51:0.78947368 52:0.84210526 53:0.73684211 54:0.78947368 55:0.73684211 56:0.63157895 57:0.42105263 58:0.42105263 59:0.21052632 60:0.15789474 61:0.10526316 66:0.10526316 67:0.21052632 68:0.10526316 69:0.052631579 70:0.052631579 71:0.052631579 72:0.052631579 73:0.15789474 74:0.47368421 75:0.57894737 76:0.63157895 77:0.57894737 78:0.57894737 79:0.57894737 80:0.57894737 81:0.47368421 82:0.47368421 83:0.52631579 84:0.52631579 85:0.42105263 86:0.21052632 87:0.21052632 88:0.31578947 89:0.42105263 90:0.31578947 91:0.26315789 92:0.10526316 93:0.052631579 94:0.15789474 95:0.10526316 96:0.052631579 100:0.21052632 101:0.26315789 102:0.36842105 103:0.52631579 104:0.36842105 105:0.52631579 106:0.47368421 107:0.52631579 108:0.42105263 109:0.26315789 110:0.21052632 137:0.40740741 138:0.62962963 139:0.85185185 140:0.77777778 141:0.74074074 142:0.77777778 143:1 144:0.92592593 145:0.7037037 146:0.51851852 147:0.40740741 148:0.51851852 149:0.85185185 150:0.77777778 151:0.66666667 152:0.40740741 153:0.40740741 154:0.66666667 155:0.66666667 156:0.88888889 157:0.88888889 158:0.81481481 159:0.88888889 160:0.74074074 161:0.51851852 162:0.51851852 163:0.2962963 164:0.2962963 165:0.59259259 166:0.66666667 167:0.48148148 168:0.62962963 169:0.74074074 170:0.85185185 171:0.85185185 172:0.18518519 
4.810206041454633 2:0.25 3:0.5 4:0.55 5:0.6 6:0.6 7:0.55 8:0.5 9:0.55 10:0.6 11:0.6 12:0.9 13:0.8 14:0.8 15:0.8 16:0.8 17:0.75 18:0.7 19:0.65 20:0.6 21:0.6 22:0.6 23:0.6 24:0.7 25:0.85 26:0.9 27:0.95 28:0.9 29:0.75 30:0.65 31:0.4 32:0.4 33:0.5 34:0.45 35:0.35 36:0.1 40:0.1 41:0.2 42:0.1 45:0.15 46:0.2 47:0.2 48:0.2 49:0.05 50:0.05 51:0.2 52:0.2 53:0.25 54:0.1 55:0.05 56:0.15 57:0.25 58:0.3 59:0.2 60:0.3 61:0.2 62:0.1 63:0.15 64:0.15 65:0.1 69:0.4 70:0.4 71:0.4 72:0.35 73:0.25 74:0.25 75:0.3 76:0.25 77:0.25 78:0.2 79:0.15 80:0.2 81:0.35 82:0.35 83:0.3 84:0.2 85:0.2 86:0.35 87:0.6 88:0.65 89:0.55 90:0.65 91:0.7 92:0.8 93:0.6 94:0.5 95:0.35 96:0.25 97:0.25 98:0.25 99:0.15 100:0.1 101:0.05 102:0.1 103:0.45 104:0.6 105:0.8 106:0.9 107:1 108:0.85 109:0.8 110:0.4 111:0.4 112:0.35 113:0.2 114:0.15 116:0.05 117:0.1 118:0.15 119:0.25 120:0.3 121:0.15 126:0.15 127:0.2 128:0.3 129:0.3 130:0.25 131:0.25 132:0.3 133:0.35 134:0.4 135:0.4 136:0.4 137:0.49056604 138:0.62264151 139:0.60377358 140:0.58490566 141:0.64150943 142:0.62264151 143:0.41509434 144:0.35849057 145:0.43396226 146:0.47169811 147:0.41509434 148:0.39622642 149:0.45283019 150:0.77358491 151:0.86792453 152:1 153:0.88679245 154:0.60377358 155:0.45283019 156:0.41509434 157:0.49056604 158:0.58490566 159:0.47169811 160:0.41509434 161:0.32075472 162:0.47169811 163:0.50943396 164:0.50943396 165:0.58490566 166:0.52830189 167:0.45283019 168:0.30188679 169:0.37735849 170:0.32075472 171:0.28301887 172:0.22641509 
2.042682278964262 1:0.41935484 2:0.4516129 3:0.48387097 4:0.4516129 5:0.32258065 6:0.29032258 7:0.32258065 8:0.32258065 9:0.22580645 10:0.12903226 11:0.12903226 12:0.22580645 13:0.22580645 14:0.25806452 15:0.29032258 16:0.19354839 17:0.22580645 18:0.38709677 19:0.4516129 20:0.4516129 21:0.4516129 22:0.51612903 23:0.48387097 24:0.38709677 25:0.25806452 26:0.19354839 27:0.16129032 28:0.12903226 29:0.12903226 30:0.064516129 31:0.096774194 32:0.096774194 33:0.096774194 34:0.096774194 35:0.064516129 40:0.064516129 41:0.22580645 42:0.35483871 43:0.32258065 44:0.29032258 45:0.32258065 46:0.35483871 47:0.29032258 48:0.25806452 49:0.25806452 50:0.32258065 51:0.32258065 52:0.29032258 53:0.25806452 54:0.29032258 55:0.32258065 56:0.35483871 57:0.32258065 58:0.25806452 59:0.12903226 60:0.19354839 61:0.25806452 62:0.32258065 63:0.32258065 64:0.25806452 65:0.19354839 66:0.35483871 67:0.38709677 68:0.38709677 69:0.38709677 70:0.38709677 71:0.32258065 72:0.29032258 73:0.32258065 74:0.32258065 75:0.32258065 76:0.32258065 77:0.32258065 78:0.25806452 79:0.19354839 80:0.19354839 81:0.19354839 82:0.29032258 83:0.61290323 84:0.61290323 85:0.64516129 86:0.64516129 87:0.67741935 88:0.93548387 89:1 90:1 91:0.93548387 92:0.70967742 93:0.5483871 94:0.38709677 95:0.22580645 96:0.25806452 97:0.25806452 98:0.35483871 99:0.41935484 100:0.4516129 101:0.4516129 102:0.4516129 103:0.5483871 104:0.5483871 105:0.74193548 106:0.83870968 107:0.93548387 108:0.83870968 109:0.51612903 110:0.38709677 111:0.096774194 112:0.096774194 116:0.12903226 117:0.16129032 121:0.064516129 122:0.032258065 124:0.064516129 125:0.096774194 126:0.032258065 137:0.055555556 138:0.27777778 139:0.5 140:0.68518519 141:0.94444444 142:1 143:1 144:0.98148148 145:0.94444444 146:0.7962963 147:0.46296296 148:0.31481481 149:0.42592593 150:0.40740741 151:0.46296296 152:0.48148148 153:0.57407407 154:0.77777778 155:0.74074074 156:0.74074074 157:0.75925926 158:0.83333333 159:0.88888889 160:0.59259259 161:0.37037037 162:0.31481481 163:0.2037037 164:0.2962963 165:0.42592593 166:0.7037037 167:0.77777778 168:0.83333333 169:0.92592593 170:0.90740741 171:0.7037037 172:0.62962963 
1.139578090033905 4:0.2 5:0.25 6:0.25 7:0.2 8:0.15 9:0.2 10:0.25 11:0.35 12:0.35 13:0.4 14:0.35 15:0.25 16:0.2 17:0.2 18:0.3 19:0.35 20:0.45 21:0.55 22:0.75 23:0.9 24:0.9 25:0.9 26:0.35 27:0.3 28:0.35 29:0.35 30:0.5 31:0.45 32:0.45 33:0.55 34:0.6 35:0.95 36:0.85 37:0.9 38:1 39:0.9 40:0.85 41:0.6 42:0.3 43:0.2 44:0.2 45:0.35 46:0.45 47:0.45 48:0.4 49:0.35 50:0.3 51:0.3 52:0.25 53:0.3 54:0.45 55:0.3 56:0.25 57:0.2 58:0.1 63:0.05 64:0.1 65:0.15 66:0.1 68:0.1 70:0.15 71:0.25 72:0.4 73:0.5 74:0.5 75:0.6 76:0.55 77:0.55 78:0.55 79:0.55 80:0.45 81:0.25 82:0.1 83:0.1 84:0.1 85:0.05 87:0.25 88:0.45 89:0.5 90:0.6 91:0.65 92:0.55 93:0.75 94:0.65 95:0.55 96:0.25 97:0.05 100:0.15 101:0.15 102:0.15 103:0.15 104:0.1 105:0.1 106:0.2 107:0.2 108:0.2 109:0.15 110:0.05 115:0.1 116:0.25 117:0.25 118:0.35 119:0.4 120:0.45 121:0.45 122:0.4 123:0.5 124:0.5 125:0.35 126:0.2 127:0.15 128:0.15 129:0.2 130:0.2 131:0.2 132:0.1 133:0.1 137:0.17777778 138:0.24444444 139:0.4 140:0.53333333 141:0.73333333 142:1 143:1 144:0.93333333 145:0.62222222 146:0.44444444 147:0.28888889 148:0.22222222 149:0.26666667 150:0.26666667 151:0.13333333 152:0.17777778 153:0.48888889 154:0.6 155:0.57777778 156:0.53333333 157:0.51111111 158:0.68888889 159:0.66666667 160:0.82222222 161:0.86666667 162:0.75555556 163:0.93333333 164:0.86666667 165:0.84444444 166:0.64444444 167:0.53333333 168:0.4 169:0.2 170:0.13333333 171:0.088888889 172:0.11111111 
